{"config":{"submodels":[{"model":{"config":{"head":null,"layers":[{"head":{"bias":true,"kernel_size":16,"out_channels":1},"head1x1":{"active":false,"groups":1,"out_channels":1},"channels":3,"layer1x1":{"active":true,"groups":1},"dilations":[1,3,7,17,41,101,239,1,3,7,17,41,101,239,1,13,1,3,7,17,41,101,239],"slimmable":null,"activation":[{"type":"LeakyReLU","negative_slope":0.01},{"type":"LeakyReLU","negative_slope":0.01},{"type":"LeakyReLU","negative_slope":0.01},{"type":"LeakyReLU","negative_slope":0.01},{"type":"LeakyReLU","negative_slope":0.01},{"type":"LeakyReLU","negative_slope":0.01},{"type":"LeakyReLU","negative_slope":0.01},{"type":"LeakyReLU","negative_slope":0.01},{"type":"LeakyReLU","negative_slope":0.01},{"type":"LeakyReLU","negative_slope":0.01},{"type":"LeakyReLU","negative_slope":0.01},{"type":"LeakyReLU","negative_slope":0.01},{"type":"LeakyReLU","negative_slope":0.01},{"type":"LeakyReLU","negative_slope":0.01},{"type":"LeakyReLU","negative_slope":0.01},{"type":"LeakyReLU","negative_slope":0.01},{"type":"LeakyReLU","negative_slope":0.01},{"type":"LeakyReLU","negative_slope":0.01},{"type":"LeakyReLU","negative_slope":0.01},{"type":"LeakyReLU","negative_slope":0.01},{"type":"LeakyReLU","negative_slope":0.01},{"type":"LeakyReLU","negative_slope":0.01},{"type":"LeakyReLU","negative_slope":0.01}],"bottleneck":3,"input_size":1,"gating_mode":["none","none","none","none","none","none","none","none","none","none","none","none","none","none","none","none","none","none","none","none","none","none","none"],"groups_input":1,"kernel_sizes":[6,6,6,6,6,6,6,6,6,6,6,6,6,6,15,15,6,6,6,6,6,6,6],"conv_pre_film":{"shift":true,"active":false,"groups":1},"condition_size":1,"conv_post_film":{"shift":true,"active":false,"groups":1},"head1x1_post_film":{"shift":true,"active":false,"groups":1},"groups_input_mixin":1,"layer1x1_post_film":{"shift":true,"active":false,"groups":1},"activation_pre_film":{"shift":true,"active":false,"groups":1},"activation_post_film":{"shift":true,"active":false,"groups":1},"input_mixin_pre_film":{"shift":true,"active":false,"groups":1},"secondary_activation":[null,null,null,null,null,null,null,null,null,null,null,null,null,null,null,null,null,null,null,null,null,null,null],"input_mixin_post_film":{"shift":true,"active":false,"groups":1}}],"head_scale":0.006720981856313258},"version":"0.7.0","weights":[-0.7144216299057007,-0.6449997425079346,-0.3713204860687256,0.009948937222361565,-0.18117515742778778,-0.042661454528570175,-0.39811140298843384,-0.0026376163586974144,0.5754784941673279,-0.005156272556632757,-0.2034207582473755,0.044861044734716415,-0.34286174178123474,-0.18203160166740417,0.5581770539283752,-0.03513723611831665,-0.09650494158267975,-0.03629424050450325,-0.11877837032079697,-0.2741274833679199,0.6729338765144348,0.4676114618778229,0.3610145151615143,0.01734965108335018,-0.288965106010437,-0.21387608349323273,0.08895650506019592,0.4448149800300598,0.08997581899166107,0.0611591637134552,-0.19110217690467834,-0.3985463082790375,0.05248391255736351,0.5123024582862854,0.19459651410579681,0.17185109853744507,-0.025292126461863518,-0.2433488517999649,-0.0004005767113994807,0.5118618011474609,0.24971649050712585,0.0522446371614933,-0.4434557557106018,-0.7583502531051636,0.019897866994142532,0.41394656896591187,0.4466318190097809,-0.0023126271553337574,-0.42366331815719604,-0.5163686275482178,0.06331084668636322,0.47611963748931885,0.3917076587677002,0.21806657314300537,-0.4488653838634491,-0.7086159586906433,0.02348683401942253,-0.022634226828813553,-0.05501078814268112,0.30957484245300293,-0.31189146637916565,0.4465826749801636,0.21202372014522552,0.33925357460975647,0.39531710743904114,-0.5604840517044067,-0.5471821427345276,0.2584162950515747,0.08158283680677414,-0.5620173811912537,0.5536524057388306,-0.6172093749046326,0.08455900102853775,-0.3639170825481415,0.03102800063788891,-0.049023211002349854,-0.24702249467372894,0.1231386736035347,-0.26386797428131104,-0.2439388930797577,0.15134471654891968,0.015532223507761955,-0.09710003435611725,0.203731968998909,-0.34250542521476746,0.11038373410701752,-0.09174169600009918,0.24379844963550568,0.1874748319387436,0.05392344295978546,0.07806475460529327,-0.5215836763381958,-0.2803797721862793,0.001842007040977478,0.29039913415908813,0.30121922492980957,0.09435595571994781,-0.04122842103242874,-0.2249244898557663,-0.35203269124031067,-0.21024128794670105,-0.22609931230545044,-0.2917925715446472,-0.18667256832122803,-0.07091883569955826,-0.0824134573340416,0.08428545296192169,0.11965173482894897,-0.17717258632183075,-0.5790507793426514,-0.5271348357200623,0.07010873407125473,0.22015714645385742,0.34973859786987305,0.14738483726978302,-0.15089699625968933,0.2848729193210602,-0.16232094168663025,0.20378808677196503,-0.10991454124450684,0.11829227209091187,-0.11883800476789474,-0.35763347148895264,0.35640472173690796,0.26639896631240845,0.46383485198020935,0.1650128960609436,-0.38370463252067566,-0.26379093527793884,0.2573954164981842,0.21292370557785034,0.23023846745491028,0.35419681668281555,0.9817786812782288,0.8901094794273376,-0.6142786145210266,0.08326268196105957,-0.36921507120132446,0.2243683636188507,0.6152737140655518,0.33600741624832153,-0.4142338037490845,-0.6148941516876221,-0.07756516337394714,0.31348201632499695,-0.31815990805625916,0.2785471975803375,0.07898307591676712,0.17659060657024384,0.26194560527801514,0.5041760206222534,-0.07794930785894394,-0.8463680148124695,0.09218867868185043,-0.28341659903526306,-0.5753037333488464,-0.4617137610912323,-0.014560914598405361,1.0072054862976074,0.2876107394695282,0.34551623463630676,0.32899510860443115,0.14141948521137238,-0.3138072192668915,-0.7041751146316528,0.07214047014713287,0.04896894097328186,-0.004684943240135908,-0.13288003206253052,-0.4711715579032898,0.32942381501197815,-0.20810283720493317,-0.48258230090141296,-0.27912455797195435,-0.45416274666786194,-0.0034750818740576506,-0.6525660753250122,-0.15377159416675568,-0.2764904797077179,-0.354919970035553,-0.2967875599861145,-0.47348976135253906,-0.32499605417251587,0.1746956706047058,0.29362791776657104,0.36120012402534485,0.530646026134491,0.0961415022611618,-0.7042510509490967,0.23283803462982178,-0.16053910553455353,-0.4142608940601349,-0.3176848292350769,0.1255679875612259,0.8497436046600342,0.2144438624382019,0.2415551096200943,0.20972992479801178,0.10918216407299042,-0.25075164437294006,-0.6597778797149658,0.16484218835830688,-0.10145355761051178,-0.18007433414459229,0.2945718467235565,0.21663185954093933,0.27344417572021484,-1.060945749282837,0.2786127030849457,1.0951483249664307,0.12880973517894745,0.33339935541152954,-0.06821397691965103,-1.9079378843307495,0.34454384446144104,1.8919211626052856,0.1744973063468933,-0.08709615468978882,0.2727971076965332,-0.14641007781028748,-0.026530833914875984,-0.12358716875314713,0.02579910308122635,0.08190647512674332,-0.5122354030609131,-0.04348859190940857,0.09935120493173599,0.01039794646203518,-0.12429343163967133,-0.307780921459198,0.2613303065299988,0.11022358387708664,0.10253845155239105,0.14049510657787323,0.02869955077767372,-0.030871888622641563,-0.5567319989204407,0.08132494986057281,-0.026493187993764877,0.2697162628173828,-0.005110429599881172,0.2968447804450989,-0.45533663034439087,0.15748608112335205,0.1268751323223114,0.1711008995771408,0.3847180902957916,0.07680294662714005,-0.2695736587047577,-0.02330096997320652,0.0285398717969656,-0.18472597002983093,0.06837638467550278,-0.12762399017810822,0.0915745347738266,0.1327504813671112,-0.007832407020032406,-0.23418742418289185,0.03134499490261078,0.1842162311077118,0.1264970451593399,-0.045074861496686935,-0.1119895726442337,-0.31293535232543945,-0.14214937388896942,-0.022273462265729904,0.10142643749713898,-0.031070835888385773,-0.030543144792318344,0.06758960336446762,0.2760373651981354,0.26562070846557617,-0.010168810375034809,-0.06628954410552979,-0.3022584021091461,-0.12255296856164932,-0.6704012155532837,-0.7285275459289551,-0.11992267519235611,0.5874039530754089,0.15329934656620026,-0.04037522152066231,-0.1509820967912674,0.2788926959037781,0.03892144933342934,0.8915718793869019,0.0636456087231636,-0.24300825595855713,-0.23685456812381744,-0.30225077271461487,0.28514358401298523,0.20160053670406342,0.14462803304195404,0.23022042214870453,0.2381220906972885,0.0672142431139946,-1.0080276727676392,0.06500160694122314,0.08061910420656204,0.1569860726594925,0.3374662697315216,-0.33224886655807495,-0.10702045261859894,-0.10417154431343079,-0.06992790848016739,-0.07392478734254837,-0.06398815661668777,0.06393932551145554,-0.6577955484390259,0.024827273562550545,0.14711640775203705,0.0493927039206028,-0.13589386641979218,0.04892343282699585,0.2257949262857437,0.0321032851934433,-0.026898125186562538,-0.030444646254181862,-0.36223486065864563,-0.40968918800354004,0.5080495476722717,-0.009847262874245644,-0.09766393154859543,-0.04758689925074577,-0.04070454463362694,-0.31222110986709595,0.7704012989997864,0.16102473437786102,0.12375173717737198,0.17455114424228668,0.23971712589263916,-0.0966273620724678,-0.8143202662467957,0.04636341705918312,0.07532679289579391,0.10614634305238724,0.4248965084552765,-0.5410950183868408,-0.5860848426818848,-0.09062927216291428,-0.04753823205828667,-0.06517300009727478,-0.041986338794231415,0.1541394740343094,-1.1511380672454834,-0.06197289377450943,-0.0709591656923294,0.32044729590415955,-0.9317209720611572,1.0270262956619263,-0.21805956959724426,0.3656845688819885,0.10567592084407806,-0.4005700945854187,-0.21628259122371674,-0.1154104471206665,0.5483149886131287,1.20411217212677,-0.7418001890182495,-1.330605149269104,0.17793717980384827,-0.08305512368679047,0.20634682476520538,0.012992603704333305,0.0263640359044075,0.11228751391172409,0.10891290009021759,0.16047148406505585,0.11270318925380707,-0.013942875899374485,0.11602585762739182,0.11549574881792068,-0.009828888811171055,-0.09353691339492798,-0.053671371191740036,-0.022063836455345154,0.03501091152429581,-0.014472920447587967,-0.07203644514083862,-0.16053086519241333,0.4236704409122467,-0.051353514194488525,0.0397040992975235,-0.21458245813846588,0.0680602639913559,0.07636650651693344,-0.7267336845397949,-0.013844525441527367,0.08361032605171204,-0.008192872628569603,-0.04958038404583931,0.08771626651287079,-0.029740290716290474,0.02953137643635273,0.04962363466620445,0.15422680974006653,-0.08531416952610016,-0.11599575728178024,-0.7474986910820007,-0.027315229177474976,-0.02441667765378952,-0.11009861528873444,-0.19808435440063477,-0.08189800381660461,-0.2094365954399109,0.06888903677463531,0.05404847115278244,0.1326679140329361,0.07775434106588364,0.17517311871051788,-0.27838650345802307,0.04803493618965149,0.0500788688659668,0.13770665228366852,0.15749038755893707,0.13792674243450165,-0.47081661224365234,-0.1055285707116127,0.10620023310184479,-0.1058233380317688,0.8257771134376526,-0.4856347143650055,-0.6426735520362854,0.18501126766204834,0.25447797775268555,0.22524258494377136,0.06405854970216751,-0.35915762186050415,0.2987515926361084,-0.5615154504776001,-0.13790741562843323,0.5553358197212219,-0.29118847846984863,-0.05712226778268814,-0.3685646653175354,0.0752081349492073,0.1181219294667244,0.04167289286851883,0.06353313475847244,0.12729574739933014,-0.42835554480552673,0.029302796348929405,-0.03608016297221184,-0.2547033429145813,-0.4308701157569885,-0.5369368195533752,-0.6220808029174805,-0.043931279331445694,-0.08117078989744186,-0.09774193912744522,-0.1603533923625946,-0.3114991784095764,-0.04597700387239456,0.0004433174035511911,0.04994197562336922,0.010299742221832275,0.024941859766840935,0.034848589450120926,0.11006447672843933,-0.013416069559752941,0.049670420587062836,0.007265343330800533,-0.0201067216694355,0.05406228080391884,0.3042041063308716,-0.006447436287999153,-0.014223088510334492,-0.003963604103773832,-0.012132388539612293,0.020022867247462273,-0.48857131600379944,-0.08384785801172256,-0.02740335837006569,-0.059648141264915466,-0.07343222945928574,-0.07211770862340927,0.2389335036277771,-0.12874989211559296,-0.04563877359032631,-0.11570488661527634,-0.1522255837917328,-0.0651838481426239,0.060655202716588974,0.008419569581747055,0.001180992927402258,0.009558304212987423,0.00486261211335659,0.04347962886095047,0.6457926034927368,-0.21096855401992798,-0.224713996052742,0.27604734897613525,0.4171268343925476,-1.6248130798339844,1.2726629972457886,-0.2721844017505646,0.45916882157325745,-0.0957019254565239,0.4637371003627777,-0.3925171196460724,-0.15788254141807556,0.050103411078453064,0.07052447646856308,0.4140235185623169,0.2472471445798874,-0.32071414589881897,0.02225365675985813,-0.1624041497707367,-0.3112143278121948,0.6026683449745178,0.06420468538999557,-0.27920693159103394,-0.055492255836725235,0.06537283211946487,0.06931838393211365,-0.11134723573923111,-0.11525198072195053,0.198541522026062,0.04044931009411812,-0.26718005537986755,-0.5210639238357544,0.6354788541793823,0.1384182572364807,-0.05951710790395737,-0.28333884477615356,-0.40387049317359924,-0.23058149218559265,0.08590719848871231,0.13227739930152893,0.24216829240322113,-0.15858562290668488,-0.09674287587404251,-0.061318207532167435,-0.17630624771118164,-0.005243273917585611,0.0945698618888855,-0.13157133758068085,0.10647653788328171,0.07496416568756104,0.30579742789268494,0.07623837143182755,0.12198950350284576,-0.040056321769952774,0.16337385773658752,-0.21497048437595367,-0.19900938868522644,-0.5616523027420044,0.013038461096584797,0.07414177805185318,0.0775265097618103,-0.03530259057879448,-0.07587383687496185,-0.19511911273002625,0.009097997099161148,-0.3469828963279724,-0.27315324544906616,-0.1702011376619339,-0.08228345215320587,-0.12218762189149857,-0.1479809433221817,0.03308042883872986,-0.00959224533289671,-0.054972048848867416,0.17887619137763977,-0.8380680084228516,0.15765798091888428,0.4395538568496704,-0.1659124344587326,-0.0037235752679407597,-0.950045108795166,0.7755322456359863,-0.6371100544929504,0.138155996799469,0.213349387049675,-0.0003021888551302254,-0.5174979567527771,0.019942786544561386,-0.21517527103424072,0.13804957270622253,-0.12448728084564209,-0.17332643270492554,0.2780829966068268,-0.2506696879863739,0.3647000789642334,0.19576039910316467,0.029181228950619698,0.08302365243434906,0.1287279725074768,-0.02318320795893669,0.22853276133537292,-0.3193371891975403,0.03247935697436333,-0.023499414324760437,-0.04518509283661842,-0.20214734971523285,-0.3490440547466278,0.6870859861373901,0.47104883193969727,0.049424074590206146,0.1795741319656372,-0.017994804307818413,-0.2868677079677582,-0.5089695453643799,-0.17016421258449554,-0.13617093861103058,-0.20209355652332306,-0.29069769382476807,-0.06421457231044769,-0.03430739417672157,0.07678977400064468,0.08485104143619537,0.015925049781799316,-0.06495128571987152,-0.40370893478393555,0.02357475832104683,-0.04016949608922005,0.09427996724843979,0.008678840473294258,0.050111450254917145,-0.1326250582933426,1.0447357892990112,0.021104570478200912,0.12995125353336334,0.08135897666215897,-0.028245646506547928,0.000814802129752934,0.6849928498268127,-0.07982608675956726,0.005457925610244274,-0.016268234699964523,-0.034635573625564575,-0.3534366190433502,0.5233151912689209,0.12314749509096146,0.10814397037029266,0.5112483501434326,0.20028604567050934,-0.43454980850219727,-0.3111051619052887,-0.24574393033981323,0.2437499761581421,-0.2575910687446594,0.8559268712997437,-0.25505512952804565,-0.46280810236930847,-0.874176025390625,-0.645840585231781,-0.10033731907606125,0.07745250314474106,0.3472743034362793,0.03190799057483673,0.24046503007411957,0.4264395236968994,0.17478977143764496,0.14321134984493256,0.27481526136398315,-0.39080485701560974,-0.09139018505811691,0.17966003715991974,0.07534993439912796,0.08929126709699631,-0.06336024403572083,0.03526898846030235,0.011473444290459156,-0.06217024847865105,0.045414794236421585,-0.04132821783423424,-0.08389771729707718,-0.5238359570503235,-0.26471713185310364,-0.1778905987739563,0.020752593874931335,0.336555540561676,0.6044217944145203,0.10297568887472153,0.21819432079792023,0.3772064447402954,0.20665040612220764,0.18983443081378937,-0.045305103063583374,-0.22124986350536346,-0.00869387574493885,-0.09788424521684647,-0.1325603425502777,-0.15409085154533386,0.3510861098766327,0.07800784707069397,-0.28806251287460327,-0.47215259075164795,-0.3551526963710785,-0.03992844372987747,0.25948384404182434,0.437956839799881,-0.06418071687221527,-0.07992814481258392,-0.1625634878873825,-0.14611220359802246,-0.020037362352013588,0.3951428234577179,-0.03108416683971882,-0.11664854735136032,-0.060414720326662064,0.020605461671948433,0.3819360136985779,-0.45075884461402893,-0.7352964282035828,0.30843085050582886,0.3833664059638977,0.2639347314834595,-0.6245042085647583,-0.26097819209098816,0.5112934112548828,0.17498059570789337,0.11677268147468567,-0.7500752806663513,0.5957881808280945,-0.24850529432296753,-0.030591830611228943,-0.40215256810188293,0.6354174017906189,0.1545591950416565,0.27200737595558167,0.3267780542373657,0.034692250192165375,-0.0008049168973229825,-0.11684510111808777,-0.1821490079164505,-0.30223262310028076,0.4687938988208771,0.1439397782087326,0.18771499395370483,0.14810052514076233,0.08453939855098724,-0.049791473895311356,-0.6089736819267273,-0.10089433938264847,-0.195708230137825,-0.13310737907886505,-0.10473039746284485,-0.1504700630903244,-0.2324262112379074,-0.01778688281774521,0.02492162398993969,0.07721689343452454,0.12271483987569809,0.18015344440937042,-1.05438232421875,-0.09646841138601303,-0.11118913441896439,-0.09397713840007782,-0.05140715837478638,0.03647712990641594,-0.9712188839912415,0.06448961049318314,0.1125887930393219,0.07867889851331711,0.05749619007110596,0.0675501897931099,-0.6204823851585388,-0.03698178753256798,-0.13385191559791565,-0.21170426905155182,-0.15667110681533813,-0.1864044964313507,0.7968144416809082,0.11431202292442322,0.055472392588853836,0.07329560816287994,0.09960020333528519,-0.03893119469285011,-0.08507692813873291,0.031609486788511276,-0.023329708725214005,-0.04093179106712341,-0.041667912155389786,0.012767953798174858,0.9236048460006714,0.34253403544425964,-0.15114900469779968,0.08908184617757797,-0.2521315813064575,0.32701608538627625,0.26178091764450073,-0.6541699767112732,0.39570093154907227,0.7650313377380371,0.5139084458351135,0.7606581449508667,1.0450924634933472,0.5795313715934753,-0.5129045248031616,0.3979032337665558,0.065154068171978,0.2896692454814911,-0.4559806287288666,-0.11142677068710327,-0.08997015655040741,-0.08988624066114426,-0.18721722066402435,-0.48444363474845886,0.5518643260002136,0.11059487611055374,0.057033054530620575,0.06891099363565445,0.09749932587146759,0.317851185798645,0.3718496859073639,0.017567593604326248,0.038058917969465256,0.03615128993988037,0.07894476503133774,0.054479919373989105,1.1791973114013672,-0.006704847328364849,-0.018550202250480652,-0.0041741011664271355,-0.10744791477918625,-0.29560235142707825,0.09493289142847061,0.023731494322419167,0.024429941549897194,-0.036342427134513855,-0.008199844509363174,-0.048109326511621475,-0.5606709718704224,0.0015034183161333203,0.01855059154331684,0.03962251543998718,0.055112674832344055,0.08800740540027618,0.6965012550354004,-0.09117142111063004,-0.07682769745588303,-0.12571771442890167,-0.21881639957427979,-0.6427220106124878,0.6394529342651367,0.09511573612689972,0.07783456146717072,0.10226748883724213,0.15041491389274597,0.4634801149368286,0.1446673572063446,0.003804510459303856,0.028482502326369286,0.04942347854375839,0.06283124536275864,0.05989784374833107,1.8238909244537354,-0.3585299849510193,0.640209436416626,0.1379309892654419,-0.4541161358356476,-0.09239543229341507,-0.6556939482688904,-1.4312477111816406,0.5773102641105652,0.8975583910942078,-1.4648759365081787,-0.08514363318681717,2.1445062160491943,-0.8330540657043457,1.217950701713562,1.2998157739639282,-0.43210145831108093,0.17786213755607605,-0.35910892486572266,0.4066869914531708,0.28549912571907043,0.13714568316936493,0.2271195650100708,-0.13814610242843628,0.004614184610545635,-0.10298512876033783,0.04953068494796753,-0.23045864701271057,-0.1738998144865036,0.0037851419765502214,-0.4260682463645935,-0.09450323134660721,-0.12462679296731949,0.11005368828773499,0.09485901147127151,0.012374947778880596,-0.03376910462975502,-0.0020319782197475433,-0.00485181761905551,-0.009238116443157196,0.007029504049569368,0.0002649413945619017,-0.40711963176727295,0.0019809617660939693,0.00010069470590678975,0.005979591514915228,0.0015119308372959495,0.0047249700874090195,-0.8649774789810181,-0.00001774450902303215,0.0024997838772833347,-0.0019875240977853537,0.00040401649312116206,-0.0013066378887742758,-0.23740744590759277,-0.044395074248313904,-0.04234824702143669,-0.27810582518577576,-0.3956575095653534,-0.31636539101600647,1.0754168033599854,-0.017279649153351784,-0.00500614894554019,-0.018287191167473793,0.04811309278011322,0.02770175226032734,-0.2641458213329315,0.016786184161901474,0.00700620049610734,0.030567390844225883,0.020038070157170296,0.055569395422935486,0.5808783769607544,0.41884100437164307,0.5004292130470276,0.09698150306940079,-0.403827041387558,0.7788325548171997,0.015600936487317085,-0.6993242502212524,-0.8620639443397522,-0.17025622725486755,-0.4860953688621521,-0.22342026233673096,0.14336742460727692,0.047897566109895706,-0.33024609088897705,0.6843212246894836,-0.005853841081261635,-0.4551566541194916,0.3444456160068512,0.03909383341670036,-0.06280522048473358,0.039384838193655014,-0.07007944583892822,0.12381742149591446,0.36283424496650696,-0.14018814265727997,-0.10936424881219864,-0.29294145107269287,-0.2317958027124405,-0.24899932742118835,0.0712021142244339,0.08400058001279831,0.12085680663585663,0.22377964854240417,0.23130537569522858,0.06685035675764084,0.003528641304001212,-0.013864207081496716,0.02756469137966633,-0.007572227157652378,-0.02218545600771904,0.03337008133530617,-0.30864113569259644,-0.0013020859332755208,-0.009115131571888924,-0.02751028910279274,-0.030600162222981453,-0.09400932490825653,-0.704275906085968,0.00817969162017107,0.003183491062372923,0.02527743950486183,0.034894779324531555,0.06543046236038208,0.6322770714759827,0.41230082511901855,0.03568791225552559,-0.11722725629806519,-0.10497856885194778,-0.07534503191709518,0.4898465871810913,-0.01656321808695793,0.03532012924551964,-0.12322348356246948,-0.10537794232368469,-0.05119878798723221,-0.36975258588790894,0.11911360919475555,-0.14322660863399506,0.11669763177633286,0.11981295794248581,0.07535944879055023,0.308295339345932,0.4855172038078308,0.23354998230934143,-0.3438093066215515,0.3963180482387543,0.7190657258033752,0.01908305287361145,-0.1924370974302292,-0.08352440595626831,0.534759521484375,0.4244840443134308,-0.6669172048568726,0.46740901470184326,0.8481307625770569,-0.48403534293174744,-0.1684449017047882,-0.06222047656774521,-0.1775030493736267,-0.450582355260849,0.2996789216995239,0.2521403431892395,0.07449591904878616,0.10272472351789474,-0.21760113537311554,-0.36884406208992004,-0.5931298136711121,-0.7138775587081909,-0.4033719301223755,-0.22731520235538483,-0.012690971605479717,0.20600290596485138,0.1973746120929718,0.2552639842033386,0.13794200122356415,0.06345521658658981,-0.03610750287771225,0.1364208608865738,0.11268918216228485,0.03752419352531433,-0.384340763092041,-0.963676393032074,-0.7454246878623962,-0.42513975501060486,-0.1367286890745163,0.03284924104809761,0.12180828303098679,0.14904437959194183,-0.03802129998803139,-0.20504635572433472,-0.015659576281905174,0.00336447823792696,-0.05786919221282005,-0.013332209549844265,-0.005983008537441492,-0.23138384521007538,-0.4838496148586273,-0.5040532946586609,-0.2940858006477356,-0.04230576381087303,-0.12375478446483612,-0.06389974802732468,0.013945725746452808,0.050153862684965134,0.08311843127012253,0.12971550226211548,0.09122119843959808,0.05997234955430031,-0.19620351493358612,-0.0343097560107708,-0.2653253972530365,0.011186482384800911,0.10656004399061203,0.1771685928106308,0.1644032746553421,0.267541766166687,0.3810857832431793,-0.0026308316737413406,-1.0788061618804932,-0.1369842290878296,0.07241608202457428,-0.1659155637025833,0.13174152374267578,-0.027168329805135727,-0.04598728567361832,-0.05927720665931702,-0.0776854008436203,-0.09288458526134491,-0.12455461174249649,0.16524876654148102,0.12309569865465164,0.1370099037885666,-0.16658389568328857,-0.17927011847496033,0.8540878295898438,-0.21042965352535248,0.42171722650527954,-0.29757606983184814,0.2218009978532791,-0.3298942446708679,0.41220319271087646,-0.23472276329994202,0.3457757532596588,-0.15855994820594788,0.09957139939069748,-0.2244526594877243,0.4067935645580292,-0.2822880148887634,-0.03696921095252037,-0.12661290168762207,0.11031708121299744,0.0789225772023201,0.133320614695549,-0.04535624384880066,-0.06355880200862885,0.041622187942266464,0.23167356848716736,0.12838035821914673,0.0356401726603508,0.20774903893470764,-0.1262252926826477,-0.31278035044670105,-0.6320992112159729,-1.0446265935897827,-0.34679239988327026,-0.044430024921894073,-0.050156738609075546,0.10525526106357574,-0.03284943848848343,-0.03939402475953102,0.03263796120882034,0.07495053857564926,0.036582767963409424,0.03846950829029083,0.20213840901851654,0.2722088694572449,-0.4527483880519867,-1.509257197380066,-1.745444893836975,-0.5046553015708923,0.07624764740467072,0.10890847444534302,-0.14869336783885956,-0.08703061938285828,-0.025114815682172775,-0.014912400394678116,0.06959797441959381,0.02427104115486145,-0.05661000683903694,0.1421257108449936,-0.02332419343292713,-0.24539470672607422,-0.6865285634994507,-0.752310574054718,-0.6056705713272095,-0.08922034502029419,-0.3008551597595215,-0.010886217467486858,-0.3200603723526001,-1.7442079782485962,-1.081602931022644,-1.038543462753296,-0.19382521510124207,-0.6018697619438171,0.1389387845993042,-1.3242985010147095,-1.3645687103271484,0.4571250081062317,-0.6792364120483398,0.21555021405220032,-0.4594798982143402,-0.4831944704055786,-0.3814125657081604,0.20658184587955475,0.014851906336843967,-0.06619207561016083,-0.08199145644903183,-0.13037271797657013,-0.07519834488630295,-0.27503034472465515,-0.34470832347869873,-0.12759119272232056,-0.11521005630493164,0.07573328912258148,-0.527975857257843,-0.0005294069414958358,-0.06898491829633713,-0.05255826935172081,-0.011612915433943272,-0.020554382354021072,-0.06897471100091934,0.0008705041836947203,0.015532896853983402,0.2357272505760193,0.198486328125,0.07188551127910614,-0.2831188440322876,-0.32969173789024353,-0.09464585781097412,0.17526397109031677,0.055220797657966614,-0.101117342710495,-0.1645299345254898,0.04853171855211258,0.20064350962638855,0.1956881433725357,0.20247796177864075,0.19794410467147827,0.10149471461772919,0.1684858202934265,0.20911794900894165,0.2861297130584717,0.30344700813293457,0.35678932070732117,0.13772854208946228,-0.013543663546442986,0.3770174980163574,-0.2521735727787018,-0.07443634420633316,-0.05570123717188835,-0.032350026071071625,-0.025506962090730667,-0.025521468371152878,-0.06093236804008484,-0.005234749522060156,-0.012102143839001656,-0.013569846749305725,-0.04566115885972977,-0.05587959662079811,-0.05851694196462631,-0.008803792297840118,-0.0740400105714798,0.5933261513710022,0.03186476603150368,0.010820786468684673,0.0033293860033154488,-0.014646513387560844,-0.006310761906206608,-0.004798698239028454,-0.029514357447624207,-0.03046387806534767,-0.02585230953991413,-0.004623648710548878,-0.01589266024529934,-0.006067581940442324,-0.052905939519405365,0.03200412541627884,0.9148208498954773,-0.00936784315854311,0.01280160155147314,0.005385247524827719,0.03210534527897835,0.02565602771937847,0.032037440687417984,0.06401363015174866,0.05953650549054146,0.09983009845018387,0.06261493265628815,0.1521567553281784,0.06326083093881607,0.21659789979457855,0.013383756391704082,0.4409085810184479,-0.33760887384414673,-0.39336979389190674,-0.15850324928760529,-0.11963049322366714,-0.10955186188220978,-0.24415455758571625,-0.00940852053463459,-0.10298196226358414,0.08749935775995255,-0.10404163599014282,-0.2296697050333023,-0.12977240979671478,0.09659840911626816,-0.07685481756925583,-0.1263723075389862,0.13212630152702332,0.15648381412029266,0.13232830166816711,-0.030625706538558006,-0.0004561385721899569,-0.045697230845689774,-0.10875018686056137,-0.07048963010311127,-0.10466847568750381,0.10205686092376709,-0.03323526680469513,0.07503972947597504,-0.29709362983703613,0.12968449294567108,-0.3530895709991455,0.005931234918534756,-0.038085754960775375,0.015760513022542,0.11150945723056793,0.10556246340274811,0.16759522259235382,0.307757705450058,0.2132713943719864,0.5034452080726624,0.26675036549568176,0.5923942923545837,0.2012665867805481,0.6679881811141968,0.08684656023979187,-0.1577264368534088,0.017122630029916763,-0.7284959554672241,0.4511120021343231,0.07315239310264587,-0.5394694209098816,0.7417863011360168,-0.3173997700214386,-0.5052438378334045,-0.08427637070417404,-0.249670147895813,-0.5867606401443481,0.1629684418439865,0.6383943557739258,-0.34876635670661926,0.4640570878982544,-0.11873788386583328,0.6682490110397339,-0.031168989837169647,-0.08176343142986298,-0.08766049146652222,-0.018753351643681526,0.09326832741498947,0.18147893249988556,0.09879666566848755,0.1430290788412094,-0.5924155712127686,-0.6090404987335205,-0.44312235713005066,-0.12024745345115662,0.196763277053833,0.14225143194198608,0.19386836886405945,-0.03463418409228325,0.27353435754776,0.1778670698404312,0.4087931513786316,0.441925585269928,0.45245304703712463,0.7261126637458801,0.22434870898723602,-0.1466193050146103,-0.07707107067108154,0.23553431034088135,0.5743420720100403,1.1241846084594727,0.3143831491470337,-0.16759124398231506,0.1325431764125824,0.4550732374191284,0.6236369609832764,0.4036658704280853,0.410254567861557,0.2958231568336487,0.05863242223858833,0.05017581209540367,0.05524160712957382,0.14814329147338867,-0.10103225708007812,-0.001525004510767758,-0.5567665696144104,0.021890372037887573,0.09340007603168488,-0.09353140741586685,0.15273335576057434,0.026977509260177612,0.08881144970655441,-0.05806122347712517,-0.1934526115655899,0.0023871497251093388,-0.22633595764636993,-0.0031471133697777987,-0.3916618525981903,0.02432696521282196,0.883868932723999,0.029888415709137917,-0.5011147856712341,0.2964251935482025,-1.2754207849502563,-0.19808390736579895,0.44502729177474976,1.000652551651001,0.31499195098876953,-0.16469517350196838,1.539796233177185,-0.1884288638830185,0.7064459919929504,0.6456677913665771,-0.361850768327713,0.24792510271072388,-0.36593368649482727,0.12156479060649872,-0.003306872909888625,-0.3411184549331665,-0.09678129851818085,-0.303144633769989,-0.4038081765174866,-0.3853774964809418,-0.19911202788352966,-0.19237425923347473,-0.7985042333602905,-0.9910416603088379,0.0331970751285553,0.07538764178752899,-0.05744538828730583,0.6866057515144348,0.2213388830423355,-0.0044107805006206036,-0.24561579525470734,0.2564680874347687,-0.027479277923703194,0.2412249743938446,-0.050383877009153366,-0.6507865786552429,0.13641217350959778,0.08602196723222733,0.07503834366798401,-0.03184587508440018,-0.07307983934879303,-0.12446542829275131,0.6305602192878723,-0.11031310260295868,-0.2378956824541092,-0.06936579942703247,-0.3596402704715729,-0.4056273400783539,0.752358078956604,-0.116085946559906,-0.28900569677352905,-0.18369419872760773,-0.0962391123175621,-0.05235455185174942,-0.4198276996612549,-0.14183881878852844,-0.08971313387155533,-0.3810037672519684,-0.1454131007194519,-0.42340946197509766,-1.6952388286590576,0.12173351645469666,0.3147219717502594,0.14013364911079407,-0.04214435815811157,0.36275675892829895,0.06474383920431137,0.48861590027809143,0.3544996380805969,0.2210077941417694,-0.28248846530914307,-1.050751805305481,-0.07275757938623428,-0.5001521706581116,-0.04582666978240013,-0.11517878621816635,-0.27726948261260986,-0.7049612402915955,-0.046328287571668625,0.27921369671821594,-0.5470688343048096,-0.7347359657287598,-0.07054058462381363,0.33023443818092346,-0.7134636044502258,0.05733509734272957,-0.07249785214662552,-0.09943510591983795,-0.09272193908691406,-0.4915488064289093,0.21199749410152435,-0.11762997508049011,-0.03413736820220947,0.20270919799804688,0.01105524692684412,-0.19808687269687653,0.7928334474563599,-0.2872149646282196,-0.012655585072934628,0.026465335860848427,-0.1591346710920334,-0.22973059117794037,0.5086461305618286,-0.0726625993847847,0.07006525248289108,0.06457073986530304,0.05258394405245781,0.048175010830163956,0.19965466856956482,0.058965232223272324,0.12465706467628479,-0.0563645176589489,0.20129232108592987,-0.1992858648300171,-0.8341728448867798,0.14008167386054993,-0.06382402032613754,0.17846575379371643,0.11319031566381454,-0.22134935855865479,0.04427579045295715,-0.06901130080223083,0.0323532335460186,0.01594396121799946,0.037046849727630615,0.413597971200943,-0.061074621975421906,0.21765561401844025,0.08949606120586395,-0.1630701720714569,0.10210079699754715,0.03306545317173004,-0.7685474753379822,0.1604909896850586,0.08499204367399216,-0.04842199385166168,0.24337133765220642,0.24445873498916626,-0.5747791528701782,0.0362543910741806,-0.6363580226898193,-0.3397706151008606,0.9938094615936279,0.21363089978694916,-0.24154141545295715,-0.010354512371122837,0.4370346963405609,-0.24461594223976135,-0.6086704134941101,0.015133814886212349,0.7508496046066284,-0.42768001556396484,0.02648152969777584,0.5007982850074768,0.09013154357671738,-0.035672545433044434,-0.4682786762714386,0.3042214512825012,0.19170351326465607,-0.04330084100365639,0.07292995601892471,-0.14940518140792847,-1.3141027688980103,0.023561298847198486,0.18143074214458466,0.0024149047676473856,0.10013029724359512,-1.0031267404556274,-0.23525157570838928,-0.217740997672081,-0.07484965026378632,0.24930128455162048,-0.07287273555994034,0.45657971501350403,0.002214440144598484,-0.004841108340770006,-0.15245819091796875,-0.10181631147861481,-0.20997685194015503,-0.16110986471176147,0.2136583775281906,-0.12182743847370148,-0.27040839195251465,-0.2046479880809784,0.0094449482858181,-0.0965503379702568,0.6322087049484253,-0.11296923458576202,-0.2717137038707733,-0.116738460958004,0.056710366159677505,-0.3292829096317291,0.26674196124076843,0.0013630634639412165,0.1051415205001831,0.04877924174070358,0.11319831758737564,0.09363766014575958,-0.14839839935302734,0.08558344095945358,0.16567854583263397,0.10512568056583405,0.011009331792593002,0.0909837931394577,-0.3029078245162964,0.09283718466758728,0.13973045349121094,0.08783480525016785,-0.03419414535164833,0.2065333127975464,-0.21407067775726318,-0.1567337065935135,-0.05135250836610794,0.02112952619791031,-0.5224816799163818,-0.07452310621738434,-0.14320868253707886,0.564617931842804,0.13888050615787506,-0.2946653664112091,-0.08419476449489594,-0.8670335412025452,1.2841525077819824,-0.19894669950008392,0.10105875879526138,-0.04276275262236595,-0.7186745405197144,-0.20740747451782227,-0.639197826385498,0.1739828735589981,0.05721274018287659,0.03492686152458191,-0.01994890533387661,-0.07305245101451874,-0.10363470017910004,0.31319886445999146,0.1274246871471405,0.0023947572335600853,-0.04538598656654358,0.026041731238365173,-0.14802829921245575,0.07897980511188507,0.00724842119961977,-0.10646095871925354,-0.07550729811191559,-0.037987761199474335,-0.04194357618689537,0.08466777950525284,-0.09850867837667465,-0.1272839903831482,-0.15480723977088928,-0.24268336594104767,0.10593739151954651,0.32785215973854065,0.04424423351883888,0.13363835215568542,-0.3242245316505432,-0.16276085376739502,0.06966199725866318,0.023764593526721,-0.0475420244038105,-0.06650194525718689,-0.25186726450920105,-0.20788435637950897,-0.02663804218173027,-0.06938160210847855,0.09691212326288223,0.11138638108968735,0.10266205668449402,0.23102517426013947,-0.07498490065336227,-0.2649710178375244,-0.05266750976443291,-0.0865175649523735,0.25486838817596436,0.14800280332565308,-0.04423241317272186,-0.02538209594786167,0.04571445658802986,0.0623248890042305,0.22471949458122253,0.16550520062446594,0.007409880869090557,0.19530388712882996,0.42340850830078125,0.17268292605876923,1.1101493835449219,-0.4992867410182953,0.11345747858285904,-0.0712609589099884,-0.8594313859939575,0.9768908023834229,0.36454108357429504,-0.9896618723869324,1.0067064762115479,-0.6646369099617004,0.17338915169239044,0.23573388159275055,-0.12210177630186081,-0.5413369536399841,-0.5886498689651489,0.06852667778730392,-0.20069852471351624,-0.05092135816812515,0.1441573202610016,0.4652092158794403,0.29703289270401,0.18806065618991852,-0.1778467297554016,-0.06832455843687057,0.3679163455963135,0.9156979322433472,-0.10003625601530075,-0.008489175699651241,-0.20476631820201874,0.19595761597156525,0.2472945600748062,0.10941918939352036,1.3817068338394165,0.11795617640018463,0.13353431224822998,-0.12857438623905182,-0.1369297355413437,-0.15999166667461395,-0.0778447613120079,-0.11195634305477142,0.0501881018280983,-0.17216816544532776,-0.2040564864873886,0.057927582412958145,-0.18881568312644958,0.02540598064661026,0.05462059751152992,-0.04835226759314537,0.038214270025491714,0.08983319252729416,-0.0439976304769516,-0.05111901834607124,0.10780954360961914,0.053680602461099625,-0.020529236644506454,-0.19780373573303223,-0.09334130585193634,-0.08841060847043991,0.08484051376581192,0.001046291901730001,-0.1659538894891739,-0.4285460412502289,0.05182375758886337,0.013146422803401947,0.10641946643590927,-0.10612358897924423,-0.1386595368385315,-0.06577208638191223,-0.6262667179107666,0.08516932278871536,0.5359176993370056,0.3766627609729767,-0.021654199808835983,0.07083813101053238,-0.22754447162151337,-0.07660599052906036,-0.43732744455337524,-0.11794205009937286,-0.044291287660598755,1.9961456060409546,-0.07860349863767624,-0.6774619817733765,0.3037213981151581,1.1324034929275513,-0.07264398038387299,0.1397477686405182,-0.03220886364579201,0.13817621767520905,0.03196059912443161,0.0488174743950367,0.06302887201309204,0.00842923391610384,0.051112495362758636,-0.12584619224071503,-0.17280368506908417,0.11352283507585526,-0.02639787271618843,-0.005432856734842062,-0.037961699068546295,0.1744537651538849,-0.11657089740037918,-0.0890941396355629,0.016698472201824188,-0.10028024017810822,0.038449451327323914,0.07995475828647614,0.19927069544792175,0.10442093759775162,-0.0425596684217453,-0.3183259963989258,-0.19308559596538544,-0.08566327393054962,0.14367565512657166,0.13460588455200195,0.4190913438796997,0.1591194123029709,-0.134541854262352,0.0009909591171890497,-0.06989765167236328,0.15574605762958527,-0.3347250521183014,0.43156230449676514,-0.19401021301746368,-0.04520782083272934,-0.1112559586763382,-0.044893793761730194,0.02703707478940487,0.16316482424736023,0.13033564388751984,0.04902410879731178,-0.08775235712528229,-0.0701955035328865,-0.22348065674304962,-0.09273577481508255,0.09008875489234924,0.014375624246895313,0.04772063344717026,-0.09195277839899063,0.19303779304027557,-0.26005819439888,0.11028781533241272,-0.12202321738004684,0.2910376489162445,0.13411888480186462,-0.020112210884690285,-0.5403813123703003,0.15032577514648438,0.4162098467350006,-0.00858832336962223,0.5327888131141663,0.11612158268690109,0.18631941080093384,-0.07476914674043655,-0.32249006628990173,-0.3899204134941101,-0.36959829926490784,-0.3457287847995758,0.4948616325855255,-0.35605674982070923,0.008550320751965046,0.021521717309951782,0.029065487906336784,0.008214602246880531,-0.025677205994725227,-0.05852549523115158,-0.08755538612604141,-0.10418304055929184,-0.09837696701288223,-0.07844707369804382,-0.053106870502233505,-0.009835385717451572,0.0409790500998497,0.06196202337741852,0.04371407628059387,0.013706952333450317,-0.00270249554887414,-0.01230168528854847,-0.018882296979427338,-0.020651621744036674,-0.025770798325538635,-0.03043532557785511,-0.03022764064371586,-0.03216793015599251,-0.041453633457422256,-0.04802709445357323,-0.04550592228770256,-0.04172034561634064,-0.04413178935647011,-0.04117770120501518,-0.026140568777918816,-0.008834319189190865,-0.005642945412546396,-0.0048087481409311295,-0.0015919646248221397,0.009737957268953323,0.03514045476913452,0.06722817569971085,0.09490231424570084,0.10768062621355057,0.11648823320865631,0.11947176605463028,0.1076463907957077,0.07247817516326904,0.034685373306274414,0.012695827521383762,0.0034469037782400846,0.0017664964543655515,-0.028798021376132965,0.006720981706087608],"metadata":{"date":{"day":3,"hour":5,"year":2026,"month":6,"minute":0,"second":47},"gain":0.7890322313023339,"loudness":-22.555425740219214},"sample_rate":48000,"architecture":"WaveNet"},"max_value":0.5},{"model":{"config":{"head":null,"layers":[{"head":{"bias":true,"kernel_size":16,"out_channels":1},"head1x1":{"active":false,"groups":1,"out_channels":1},"channels":8,"layer1x1":{"active":true,"groups":1},"dilations":[1,3,7,17,41,101,239,1,3,7,17,41,101,239,1,13,1,3,7,17,41,101,239],"slimmable":null,"activation":[{"type":"LeakyReLU","negative_slope":0.01},{"type":"LeakyReLU","negative_slope":0.01},{"type":"LeakyReLU","negative_slope":0.01},{"type":"LeakyReLU","negative_slope":0.01},{"type":"LeakyReLU","negative_slope":0.01},{"type":"LeakyReLU","negative_slope":0.01},{"type":"LeakyReLU","negative_slope":0.01},{"type":"LeakyReLU","negative_slope":0.01},{"type":"LeakyReLU","negative_slope":0.01},{"type":"LeakyReLU","negative_slope":0.01},{"type":"LeakyReLU","negative_slope":0.01},{"type":"LeakyReLU","negative_slope":0.01},{"type":"LeakyReLU","negative_slope":0.01},{"type":"LeakyReLU","negative_slope":0.01},{"type":"LeakyReLU","negative_slope":0.01},{"type":"LeakyReLU","negative_slope":0.01},{"type":"LeakyReLU","negative_slope":0.01},{"type":"LeakyReLU","negative_slope":0.01},{"type":"LeakyReLU","negative_slope":0.01},{"type":"LeakyReLU","negative_slope":0.01},{"type":"LeakyReLU","negative_slope":0.01},{"type":"LeakyReLU","negative_slope":0.01},{"type":"LeakyReLU","negative_slope":0.01}],"bottleneck":8,"input_size":1,"gating_mode":["none","none","none","none","none","none","none","none","none","none","none","none","none","none","none","none","none","none","none","none","none","none","none"],"groups_input":1,"kernel_sizes":[6,6,6,6,6,6,6,6,6,6,6,6,6,6,15,15,6,6,6,6,6,6,6],"conv_pre_film":{"shift":true,"active":false,"groups":1},"condition_size":1,"conv_post_film":{"shift":true,"active":false,"groups":1},"head1x1_post_film":{"shift":true,"active":false,"groups":1},"groups_input_mixin":1,"layer1x1_post_film":{"shift":true,"active":false,"groups":1},"activation_pre_film":{"shift":true,"active":false,"groups":1},"activation_post_film":{"shift":true,"active":false,"groups":1},"input_mixin_pre_film":{"shift":true,"active":false,"groups":1},"secondary_activation":[null,null,null,null,null,null,null,null,null,null,null,null,null,null,null,null,null,null,null,null,null,null,null],"input_mixin_post_film":{"shift":true,"active":false,"groups":1}}],"head_scale":0.006720981856313258},"version":"0.7.0","weights":[-0.179823100566864,-0.05060113966464996,-0.009377315640449524,0.3955453038215637,-0.3377131223678589,-0.6341690421104431,0.08052053302526474,0.9257070422172546,-0.09100014716386795,-0.016639618203043938,-0.09455537796020508,0.07693635672330856,0.20914359390735626,-0.05052624270319939,0.015083853155374527,-0.0033977993298321962,-0.009366088546812534,-0.0005576068069785833,0.02983664534986019,0.017445895820856094,0.002586627146229148,-0.005126187112182379,-0.0002959015837404877,-0.0013963923556730151,0.007892205379903316,0.001365904463455081,-0.0038772348780184984,0.11167596280574799,0.11015423387289047,-0.12675705552101135,-0.24581585824489594,0.058763537555933,-0.0941525250673294,-0.021296197548508644,-0.09577511250972748,0.1256120502948761,0.25374916195869446,-0.058983247727155685,-0.04791450500488281,-0.025166833773255348,-0.11141016334295273,0.11723849177360535,0.23582489788532257,0.020065603777766228,0.01943022571504116,0.030024617910385132,0.07150102406740189,-0.031933918595314026,-0.08428636193275452,0.003773303236812353,0.15876354277133942,-0.01867326721549034,0.17191797494888306,-0.030715594068169594,-0.25652825832366943,0.027399586513638496,0.023180847987532616,-0.036937735974788666,-0.008303302340209484,-0.08930400758981705,-0.0677449181675911,0.03380901739001274,-0.005107183009386063,-0.009676912799477577,0.003164303721860051,0.004713656380772591,-0.0009355343063361943,0.00653589004650712,-0.005177363287657499,-0.005800687242299318,-0.005535210482776165,-0.005217247176915407,-0.00766864325851202,-0.0046633523888885975,-0.049318768084049225,0.07086711376905441,0.03511350229382515,0.16060678660869598,0.12846004962921143,-0.1012234166264534,0.0067014084197580814,0.04797585681080818,-0.03811720758676529,-0.0899270623922348,-0.09225989878177643,0.09231074154376984,-0.03737679868936539,0.01086867693811655,-0.05824940279126167,-0.16399741172790527,-0.10213211178779602,0.06660892814397812,0.021572543308138847,0.018718700855970383,0.000217928463825956,0.016039494425058365,0.01907680183649063,-0.02064364217221737,-0.07539385557174683,-0.015270207077264786,0.007883919402956963,0.17583924531936646,0.2063188999891281,-0.032174594700336456,0.03819901868700981,0.028760047629475594,0.012085980735719204,-0.043540697544813156,-0.15191252529621124,-0.031534742563962936,-0.0068322583101689816,-0.009782517328858376,-0.0030036955140531063,-0.01220966037362814,-0.012790976092219353,-0.003653444116935134,-0.005574000999331474,-0.005300029180943966,-0.004906489979475737,-0.005898106377571821,-0.008307687006890774,-0.003640592098236084,0.04428809508681297,-0.1089269295334816,-0.030814331024885178,0.13459034264087677,0.22592659294605255,0.039188534021377563,0.10521212965250015,-0.04223107174038887,0.012822668999433517,-0.15942873060703278,-0.14991427958011627,-0.04862956702709198,0.013046737760305405,0.04717690870165825,-0.07685364037752151,-0.10321643203496933,-0.251936137676239,-0.08021627366542816,-0.002398890443146229,-0.018276799470186234,-0.003137064166367054,0.022161664441227913,0.03711377829313278,-0.018395576626062393,0.016512727364897728,0.022545941174030304,0.07750226557254791,0.05953265354037285,0.2549939751625061,0.008429763838648796,0.09236972779035568,-0.05637155845761299,0.07495203614234924,-0.0399380624294281,-0.0012128944508731365,-0.02656329795718193,0.011516070924699306,-0.007587623782455921,0.013832582160830498,-0.003207548288628459,-0.0017402350204065442,-0.004653898999094963,0.0024408113677054644,-0.0020749359391629696,0.002470180857926607,-0.0006786353187635541,-0.0008943598950281739,-0.0006182460929267108,-0.21425385773181915,0.12317138910293579,-0.1344948261976242,0.062175001949071884,-0.020532753318548203,0.05665278062224388,0.2013164460659027,-0.12649817764759064,0.11631760001182556,-0.08109752833843231,0.02180253155529499,-0.057423971593379974,0.25537943840026855,-0.12942664325237274,0.1616876721382141,-0.10314974188804626,0.04335451126098633,-0.07928973436355591,-0.030561985448002815,0.01932031661272049,-0.02998366206884384,0.009185782633721828,0.0043356637470424175,0.006300161127001047,-0.3640099763870239,0.16789484024047852,-0.22479528188705444,0.17098629474639893,-0.10414846241474152,0.102633997797966,0.05505265295505524,0.022848807275295258,0.08719582855701447,0.07621725648641586,0.04681376367807388,-0.04884961247444153,0.007073283661156893,0.004215890541672707,0.005696712527424097,0.00625971332192421,0.0023186400067061186,-0.0024293726310133934,0.0025859735906124115,0.0012749730376526713,0.0023861024528741837,0.0025864322669804096,0.0023548449389636517,0.00024699411005713046,-0.10805533826351166,-0.006614065263420343,-0.1527157574892044,-0.08614446967840195,-0.012962721288204193,0.09813743084669113,0.08225353062152863,0.009079013019800186,0.14014120399951935,0.12916098535060883,0.017164545133709908,-0.10446145385503769,0.05597253888845444,0.05573369935154915,0.13256356120109558,0.18786275386810303,0.04440905526280403,-0.1296224445104599,-0.026499068364501,-0.018961675465106964,-0.028545958921313286,-0.02813248708844185,-0.02074025198817253,0.004318421706557274,-0.14052587747573853,-0.06010747328400612,-0.17004337906837463,-0.12713496387004852,-0.15353745222091675,0.14256635308265686,-0.00011250882380409166,-0.15989603102207184,0.0838659480214119,0.09757359325885773,-0.10396372526884079,0.0677982047200203,0.00787605531513691,0.01306611392647028,0.008833340369164944,0.006713422480970621,-0.0014512730995193124,0.003840547753497958,0.00006540204049088061,-0.0013290334027260542,-0.0003940942697227001,-0.00213033240288496,-0.0020706350915133953,-0.003081584582105279,0.0891507938504219,0.17709572613239288,-0.18248623609542847,-0.23787114024162292,0.12970399856567383,-0.08922222256660461,-0.0033032416831701994,-0.30575960874557495,0.14202065765857697,0.21635526418685913,-0.04740970581769943,0.144857719540596,0.0021405997686088085,-0.2672877311706543,0.11799903959035873,0.19131222367286682,-0.10590389370918274,0.14420661330223083,-0.0013861812185496092,0.07022646069526672,-0.029154431074857712,-0.04379255324602127,0.041744206100702286,-0.02593611180782318,0.036838989704847336,0.3239973485469818,-0.17213472723960876,-0.33012744784355164,0.16024425625801086,-0.0656266137957573,-0.15495574474334717,0.10442733019590378,-0.02428298257291317,0.23357617855072021,0.030009664595127106,-0.18448050320148468,-0.0022871855180710554,0.0032668346539139748,-0.0022984559182077646,0.02078043855726719,0.01611286588013172,-0.0013056598836556077,-0.0026427360717207193,0.0002735039743129164,-0.00452781468629837,0.004387986846268177,0.0027405074797570705,-0.00016060995403677225,0.11062856763601303,-0.141928032040596,-0.09697920829057693,-0.4256839156150818,-0.07675688713788986,0.2138344645500183,-0.13040946424007416,0.09184355288743973,-0.02264326624572277,0.4616278111934662,0.04456782341003418,-0.20046867430210114,-0.21055221557617188,0.12528598308563232,0.035524267703294754,0.45960965752601624,0.0924663320183754,-0.3652421236038208,0.06261982768774033,-0.026400359347462654,-0.0060461414977908134,-0.13094939291477203,-0.006636897101998329,0.061110809445381165,0.22478227317333221,-0.27823391556739807,-0.0028570613358169794,-0.63775235414505,0.018651140853762627,0.25635218620300293,-0.08487976342439651,-0.01930205151438713,0.06150761991739273,0.03665734827518463,0.10516267269849777,-0.06305839121341705,0.006782597862184048,0.01296661701053381,0.01684633642435074,0.014954432845115662,0.017401792109012604,0.0038536132778972387,0.005917326081544161,0.003967666998505592,0.00860236119478941,0.0043743387795984745,0.00723990797996521,0.002837430452927947,0.022380638867616653,0.09485982358455658,-0.08110621571540833,-0.1636221557855606,-0.20017698407173157,0.15796662867069244,-0.027925537899136543,-0.028876550495624542,0.009788073599338531,0.07186843454837799,0.17230243980884552,-0.18382245302200317,0.014950336888432503,-0.11556076258420944,-0.021380146965384483,0.06423262506723404,0.19409337639808655,-0.08865617960691452,0.04289846494793892,-0.007767603266984224,-0.01461872924119234,-0.020774634554982185,-0.05105099454522133,0.06239456683397293,0.05677715316414833,-0.04003419727087021,0.02811325341463089,-0.2003803700208664,-0.19583095610141754,0.1655464619398117,0.19900202751159668,0.30865511298179626,0.33470138907432556,-0.6660860776901245,0.11516160517930984,0.004876413848251104,-0.0042347377166152,0.22089961171150208,-0.14458312094211578,-0.00611212570220232,-0.05614154413342476,0.3131861090660095,-0.24547013640403748,0.20254985988140106,0.737697184085846,-0.26217740774154663,0.23718610405921936,0.10900882631540298,-0.12624792754650116,0.09703537821769714,-0.17140774428844452,0.7777287364006042,1.036592960357666,0.06549956649541855,-0.08690688014030457,-0.10015201568603516,0.12954111397266388,0.267758309841156,-0.09334583580493927,0.15618066489696503,-0.5189467072486877,-0.080905482172966,0.15262621641159058,0.26040539145469666,0.17796042561531067,0.3844500184059143,0.26898103952407837,-0.21484921872615814,0.06186041235923767,0.11525096744298935,-0.12748821079730988,0.32648324966430664,0.4026365876197815,-0.3839119076728821,-0.2090507298707962,0.31738561391830444,0.13439834117889404,-0.29081282019615173,0.23622746765613556,-0.13012176752090454,-0.023100731894373894,0.33343449234962463,-0.17933885753154755,0.14368431270122528,-0.1192762553691864,0.12459831684827805,-0.011252577416598797,0.245553657412529,0.4376721978187561,-0.36976316571235657,-0.10794244706630707,-0.029580766335129738,0.38117140531539917,-0.22081799805164337,-0.4199468791484833,0.1391950398683548,0.11060788482427597,0.36599358916282654,0.2371116429567337,-0.2716270685195923,-0.09479877352714539,-0.34776172041893005,-0.26999375224113464,0.16342522203922272,0.4047795534133911,0.17751860618591309,-0.2505906820297241,-0.018415551632642746,-0.08547880500555038,-0.3446390926837921,-0.09330322593450546,0.11097776144742966,-0.19868308305740356,-0.11699716746807098,-0.13771627843379974,-0.15544964373111725,0.05583900585770607,0.14098991453647614,0.1041509136557579,0.06566586345434189,0.08087571710348129,0.03898288682103157,0.07353450357913971,0.18785043060779572,-0.06526414304971695,-0.003199113067239523,0.010172626003623009,-0.07539442926645279,-0.1029651090502739,0.0960393026471138,-0.12925781309604645,-0.04060841724276543,-0.0510065071284771,-0.03043673373758793,-0.05965840816497803,0.09928711503744125,0.03509163111448288,0.10760672390460968,0.08849775046110153,0.023324916139245033,0.09164638817310333,0.06496094912290573,-0.10081132501363754,0.00739470636472106,0.05184020474553108,0.02045305259525776,-0.03977438807487488,0.034662533551454544,0.11194320768117905,0.10275787860155106,0.04152672365307808,0.06518949568271637,0.10895129293203354,0.03798878565430641,0.0031383722089231014,-0.1475788801908493,-0.17628303170204163,-0.20084324479103088,-0.17615632712841034,0.23581039905548096,-0.13497662544250488,-0.11032512784004211,0.06840426474809647,-0.15424340963363647,-0.1408480405807495,0.1794326901435852,-0.0026998352259397507,0.16343000531196594,0.0956234559416771,0.0919334813952446,0.16793085634708405,0.2823096215724945,-0.06476731598377228,0.05041588097810745,-0.02951173111796379,-0.0354161374270916,0.03762613236904144,0.2278599888086319,0.024098146706819534,0.014485626481473446,0.02176993153989315,-0.057878609746694565,-0.015416570007801056,-0.08828429132699966,-0.06855606287717819,-0.017719125375151634,0.07707018405199051,0.12688326835632324,-0.01318600494414568,0.05333482846617699,-0.056823596358299255,-0.07673489302396774,-0.07740873843431473,-0.12314236164093018,-0.09252860397100449,0.02149658091366291,0.0668017715215683,0.09844264388084412,0.10102291405200958,0.1911468356847763,0.18607421219348907,0.012823319062590599,-0.05141202360391617,0.040704064071178436,-0.058411452919244766,-0.13797731697559357,0.04670371860265732,-0.1601964235305786,-0.14966033399105072,-0.10194461792707443,-0.059238407760858536,-0.043592147529125214,-0.15434549748897552,-0.07521121948957443,0.03868532180786133,0.050350576639175415,0.1265823394060135,0.17032715678215027,0.07044263184070587,0.10271914303302765,-0.027555113658308983,-0.05428636074066162,0.03578527644276619,0.08372153341770172,0.14321789145469666,0.04075346887111664,-0.1589929759502411,-0.05498580262064934,-0.04808277264237404,-0.0650632306933403,0.4385569989681244,0.5034157037734985,-0.17696939408779144,-0.27731162309646606,-0.258794367313385,-0.2681744396686554,0.1278676986694336,0.34082356095314026,0.019434763118624687,0.07988113909959793,0.2618215084075928,0.10428357124328613,-0.2086242437362671,-0.39447999000549316,0.07588429003953934,-0.03355087339878082,-0.0948551744222641,-0.12818920612335205,-0.1900056004524231,0.13628217577934265,-0.009161368012428284,-0.16949345171451569,-0.13044971227645874,-0.22543808817863464,-0.06508012861013412,0.22303874790668488,0.005327937658876181,-0.05419846996665001,-0.11665233224630356,-0.1797933578491211,0.12022242695093155,0.32918664813041687,0.04179329797625542,-0.006456851493567228,0.007220288272947073,0.09103026986122131,0.057515621185302734,-0.039118487387895584,0.019915303215384483,-0.022944213822484016,-0.060607075691223145,-0.059677738696336746,-0.09358899295330048,0.01978914812207222,0.13059474527835846,0.03172473609447479,0.12131228297948837,0.23696944117546082,0.13163624703884125,0.14341236650943756,-0.04548025131225586,0.04313047602772713,-0.02992415241897106,-0.08225235342979431,0.15607810020446777,0.22479932010173798,-0.023979468271136284,-0.0038851795252412558,0.014939000830054283,0.05091901496052742,-0.09598635882139206,-0.1712343692779541,-0.03752085939049721,0.10552465170621872,0.19526652991771698,-0.08889294415712357,0.09654201567173004,0.21848592162132263,0.05021228641271591,-0.14309842884540558,-0.09474232792854309,0.013177426531910896,-0.036404818296432495,0.20037667453289032,-0.09832856059074402,-0.1674211174249649,-0.15605905652046204,-0.09429167211055756,0.1368541270494461,0.1842125803232193,0.010678942315280437,0.0014221069868654013,-0.04174305126070976,0.029716214165091515,-0.104119211435318,-0.12309388071298599,-0.0072935898788273335,-0.0465233251452446,-0.004391842987388372,0.05043482407927513,0.15607044100761414,0.1617458313703537,-0.02345552109181881,0.12118092179298401,-0.034918565303087234,0.033020276576280594,-0.043994929641485214,-0.10826902091503143,-0.013289417140185833,0.026803432032465935,0.05430090054869652,0.0256165973842144,-0.1273760199546814,0.3218672573566437,-0.06680499017238617,0.0008618854335509241,-0.03893806412816048,0.03645967319607735,0.1687532514333725,-0.21479079127311707,-0.030748827382922173,0.1148638129234314,0.028697792440652847,0.12522204220294952,0.09315907955169678,0.3383168578147888,-0.019475694745779037,-0.09494727849960327,-0.179109588265419,-0.11922132223844528,-0.12912088632583618,0.262374609708786,-0.05339917540550232,-0.05852397531270981,-0.07557706534862518,-0.05063896253705025,-0.2889135181903839,0.2664058804512024,0.22726325690746307,0.13721193373203278,0.13654457032680511,0.2933054268360138,0.20508496463298798,-0.05000071972608566,-0.022760944440960884,-0.005629012361168861,0.01312386803328991,0.11554171144962311,0.027991125360131264,-0.5010874271392822,-0.03745336830615997,-0.06682459264993668,-0.018689701333642006,-0.11731939762830734,0.1009087786078453,0.18185994029045105,-0.2073768824338913,0.066771499812603,-0.04197104647755623,0.05829428508877754,0.17672638595104218,-0.342912882566452,-0.05627724155783653,0.010667078197002411,0.04227747768163681,0.10496777296066284,-0.012475768104195595,-0.05161474645137787,-0.22054485976696014,0.1342185139656067,-0.022130630910396576,0.2037537842988968,0.12288780510425568,0.1353001445531845,0.07488539814949036,-0.10933884978294373,0.05593094229698181,0.0801687240600586,0.06527159363031387,0.19191540777683258,-0.18002048134803772,0.0012983203632757068,0.03681008145213127,0.048176202923059464,0.287885844707489,-0.023341070860624313,0.2625633776187897,0.4233385920524597,0.3872493505477905,0.41356000304222107,0.6299464702606201,-0.3315935730934143,-0.08197367936372757,-0.16538195312023163,-0.043692562729120255,-0.26353996992111206,-0.07428406178951263,0.42559078335762024,0.07114050537347794,0.134300097823143,0.017321929335594177,-0.11825688928365707,-0.06509551405906677,-0.2831099033355713,0.02907733805477619,0.03331398963928223,0.024025175720453262,0.1279236078262329,0.24568410217761993,0.09153097867965698,-0.0547383688390255,0.01374744437634945,0.10522731393575668,0.10677234083414078,-0.08500723540782928,0.103876031935215,0.037520669400691986,-0.06370693445205688,0.04628192260861397,0.27962860465049744,0.2605167329311371,-0.04736614227294922,-0.015811409801244736,0.1396958827972412,-0.11681056022644043,-0.22743158042430878,-0.06871986389160156,-0.19416388869285583,-0.054310303181409836,-0.03657640889286995,0.04046421870589256,-0.06949831545352936,0.05455164611339569,-0.1265876293182373,0.18217463791370392,0.19618450105190277,0.1417301744222641,0.16815710067749023,0.06276725977659225,0.1717640608549118,0.23196084797382355,0.12790454924106598,0.06585755199193954,0.10173843801021576,0.09247753024101257,0.16424021124839783,0.20546628534793854,0.15039053559303284,-0.017603131011128426,0.058782968670129776,0.006318056955933571,-0.03394319489598274,-0.1253517121076584,-0.17385655641555786,0.05843125283718109,-0.05350615829229355,0.12485004216432571,-0.21103356778621674,0.1967189759016037,0.1386222541332245,0.03205379098653793,0.13460072875022888,0.06762893497943878,0.2176482081413269,-0.10086502879858017,-0.2241901010274887,0.011486818082630634,-0.19921369850635529,0.010584304109215736,-0.1300203800201416,0.25256362557411194,0.1184568777680397,0.09124158322811127,-0.016018236055970192,0.00575090479105711,-0.002412474248558283,0.17589861154556274,0.1191992536187172,0.04961122199892998,0.005431563127785921,0.11059562116861343,-0.1626318097114563,-0.08873922377824783,-0.11516238749027252,0.39356130361557007,-0.20280572772026062,-0.06465528905391693,-0.028409384191036224,0.1595642864704132,-0.22956246137619019,-0.02383667603135109,-0.14558938145637512,0.4474961459636688,0.036948349326848984,-0.049353960901498795,0.11982341855764389,-0.030714862048625946,-0.2710135281085968,-0.028662562370300293,-0.3645455837249756,-0.16736911237239838,0.15252941846847534,0.25290918350219727,-0.2863040566444397,0.7826182246208191,-0.020260626450181007,0.08218279480934143,-0.1484844833612442,0.02040005847811699,0.04566064849495888,-0.19396275281906128,0.38607484102249146,-0.3349238634109497,-0.10159328579902649,0.048748936504125595,0.16440743207931519,-0.5188900232315063,0.40196338295936584,0.4001508057117462,-0.2804589867591858,-0.0007504296372644603,-0.17346316576004028,-0.09021461009979248,-0.018519731238484383,0.3893418312072754,-0.036706361919641495,-0.17534436285495758,0.2375233918428421,0.1565646082162857,0.2916117012500763,0.08713527768850327,0.2519805431365967,0.14526619017124176,0.08109133690595627,0.20789724588394165,0.07764717936515808,-0.04560365155339241,-0.13302451372146606,-0.1129656434059143,0.17300480604171753,0.3023356795310974,-0.03213587775826454,0.21399453282356262,-0.07131824642419815,0.2216087281703949,0.3684578537940979,-0.38626062870025635,-0.010028783231973648,0.23481261730194092,-0.13394896686077118,-0.2608894109725952,-0.178035169839859,0.06677255034446716,0.2881910502910614,-0.4527714252471924,-0.022534910589456558,0.16630776226520538,-0.28407764434814453,-0.20411470532417297,0.13989782333374023,0.04880638048052788,0.4308392107486725,0.07511475682258606,-0.07761882245540619,0.20231710374355316,-0.1286756545305252,0.07082734256982803,-0.1341852843761444,-0.09267124533653259,-0.17736557126045227,-0.07324080914258957,-0.0969371646642685,-0.06645241379737854,0.06867070496082306,-0.057441070675849915,-0.017654119059443474,-0.00808710791170597,-0.0027190460823476315,-0.08107169717550278,-0.04094637185335159,0.06528503447771072,-0.03965460881590843,0.030637819319963455,-0.05415920540690422,-0.06386793404817581,-0.13610680401325226,-0.12144970893859863,-0.03799672797322273,0.04336269944906235,0.0826173797249794,-0.06525661051273346,-0.014870447106659412,-0.13648474216461182,-0.11354157328605652,-0.05909815430641174,-0.017832409590482712,-0.07605350017547607,0.04500927776098251,0.018364310264587402,-0.052585698664188385,0.04095912724733353,0.1325932890176773,-0.26682722568511963,0.23988719284534454,-0.19321629405021667,-0.1074725091457367,0.16717229783535004,-0.0552777498960495,-0.01960364729166031,0.036379631608724594,0.192023366689682,0.022566113620996475,0.17809583246707916,-0.06159795820713043,-0.06355989724397659,-0.10957734286785126,0.11595325917005539,0.05195124074816704,-0.05085371062159538,-0.09680145978927612,0.00023937942751217633,-0.09531386196613312,-0.1772034466266632,-0.3926084637641907,-0.02685651183128357,-0.08537407964468002,0.01375011820346117,0.15000301599502563,0.17334985733032227,0.22669999301433563,0.0073294686153531075,-0.10039478540420532,-0.057902827858924866,0.08945111185312271,0.27400389313697815,-0.04989971965551376,0.034426748752593994,-0.045417118817567825,-0.28161102533340454,-0.1798286885023117,-0.10328901559114456,0.4158693552017212,0.06382551789283752,0.14138609170913696,0.22473260760307312,0.02672450803220272,0.021534400060772896,-0.28181588649749756,-0.01977400667965412,-0.012215164490044117,-0.06401864439249039,-0.1742226928472519,-0.20010322332382202,-0.07041338086128235,-0.041320156306028366,-0.23954127728939056,-0.1336943358182907,-0.12364301830530167,-0.1468912661075592,0.34627124667167664,-0.1601247787475586,-0.14313116669654846,-0.19541124999523163,-0.0949406698346138,-0.015902085229754448,0.38920778036117554,0.08217406272888184,0.15781381726264954,0.1172250285744667,0.26048797369003296,0.06168703734874725,0.22428232431411743,0.11535781621932983,0.024685543030500412,0.11681687086820602,-0.03718036040663719,-0.11381816864013672,-0.2723797857761383,-0.03098364733159542,-0.04193316400051117,-0.15883159637451172,0.11648154258728027,0.03062102571129799,-0.24356770515441895,0.047268595546483994,-0.001501889550127089,-0.09745078533887863,-0.021768080070614815,-0.2028041034936905,0.3130251467227936,-0.06296780705451965,-0.05179609730839729,-0.009970574639737606,-0.24834297597408295,0.020074104890227318,-0.14967826008796692,0.0009643341181799769,-0.003106526331976056,0.013870660215616226,-0.128170445561409,-0.17328959703445435,-0.05801161378622055,-0.06107576563954353,0.044749725610017776,-0.03996192663908005,0.03895695134997368,0.08068260550498962,-0.11192134022712708,-0.047152675688266754,0.034750986844301224,-0.01639304682612419,-0.04552193731069565,-0.15297159552574158,0.03596675023436546,0.01949239708483219,0.02803320623934269,0.0018585086800158024,-0.013444957323372364,-0.001877032918855548,-0.3793467581272125,0.06019214913249016,-0.12761782109737396,-0.15166109800338745,-0.027574991807341576,0.07238029688596725,-0.0009496133425273001,-0.2991862893104553,-0.051301077008247375,0.07071754336357117,0.3272412419319153,0.2954823970794678,-0.4004482924938202,-0.22382189333438873,-0.1775999814271927,-0.2369891256093979,-0.07249759882688522,0.016033228486776352,0.4754176437854767,0.1028117835521698,0.35765302181243896,-0.08209110796451569,-0.04636687785387039,-0.0038302342873066664,-0.3191244304180145,0.08207622170448303,-0.08667542040348053,-0.15186718106269836,-0.19723506271839142,-0.04683390632271767,0.12915314733982086,0.02071516215801239,-0.13059014081954956,-0.15517280995845795,-0.06357003003358841,-0.06984928250312805,0.425525963306427,-0.11577926576137543,-0.20939578115940094,-0.06220612674951553,0.007565225474536419,0.11830688267946243,0.40274229645729065,0.22066180408000946,0.2468806356191635,0.3620206117630005,0.38807544112205505,0.30369699001312256,-0.4517225921154022,-0.025563346222043037,0.057187508791685104,-0.056221768260002136,0.009102306328713894,0.11201322078704834,0.110831119120121,-0.040567997843027115,0.02824334241449833,-0.020932991057634354,0.0655844658613205,0.06522495299577713,0.21080264449119568,-0.009638066403567791,-0.03524956852197647,-0.12302009016275406,-0.043580468744039536,-0.08424130827188492,-0.19007821381092072,0.039696354418992996,0.01202288456261158,-0.05317915230989456,-0.08148615807294846,-0.09157386422157288,-0.005167589522898197,0.013292777352035046,0.056257184594869614,0.020821528509259224,-0.18605007231235504,-0.04092714935541153,-0.021341271698474884,0.037015579640865326,-0.02620456926524639,-0.1016274094581604,-0.14511074125766754,-0.10148095339536667,0.06772011518478394,0.04928380995988846,-0.04239934682846069,0.03141237422823906,0.12514068186283112,0.008645515888929367,0.1844823807477951,-0.025991929695010185,-0.0715247318148613,-0.13724306225776672,-0.22244644165039062,-0.18140703439712524,0.10513421893119812,-0.0014671130338683724,0.01788226328790188,0.10625443607568741,-0.027361609041690826,-0.04380118101835251,-0.06568107008934021,0.131178617477417,0.20956440269947052,-0.04119393229484558,-0.11861090362071991,-0.2473551481962204,0.29171985387802124,0.21407991647720337,0.1862359195947647,0.3321804106235504,0.14360325038433075,0.08038580417633057,-0.5340405106544495,-0.167863130569458,-0.1566452980041504,-0.04397591948509216,-0.18209974467754364,0.13845780491828918,0.35172542929649353,-0.10585027188062668,-0.016957439482212067,0.05934673547744751,0.1279837042093277,-0.05134467035531998,-0.6674535870552063,-0.08645612746477127,0.18294335901737213,0.18526972830295563,0.18569415807724,0.19173742830753326,-0.44792208075523376,0.08544830232858658,0.2864466905593872,0.13874787092208862,0.13602298498153687,0.06340339034795761,-0.4387814700603485,-0.04892653971910477,0.052740681916475296,-0.05177472531795502,-0.30402252078056335,-0.22088514268398285,-0.027691539376974106,-0.015036050230264664,-0.14161549508571625,0.14737701416015625,0.10992902517318726,0.09111812710762024,0.09692172706127167,0.05518293008208275,0.16601505875587463,-0.17423076927661896,-0.25121068954467773,-0.11739923059940338,0.12000062316656113,0.007983787916600704,0.06651939451694489,0.0029792257118970156,0.014158329926431179,0.14999723434448242,-0.34384793043136597,0.13314276933670044,-0.0677628144621849,0.06398779898881912,-0.12067795544862747,0.003157022874802351,0.3287171721458435,-0.23299935460090637,0.12567903101444244,-0.06978189200162888,0.05248769372701645,-0.11119973659515381,-0.24675831198692322,-0.14978285133838654,-0.0009643119992688298,0.1475730538368225,0.045363377779722214,0.2140021026134491,-0.09402372688055038,0.1230018138885498,0.2386641800403595,0.2173246443271637,0.09968622028827667,0.04020121321082115,-0.1381157487630844,0.0480644665658474,-0.02127847820520401,0.06412151455879211,-0.012943319976329803,0.02828359603881836,0.21290817856788635,0.06970982253551483,0.026691438630223274,-0.09389294683933258,0.001447268994525075,0.08305426687002182,-0.04349018260836601,0.12690934538841248,0.13693848252296448,0.1272660791873932,-0.09566693753004074,-0.07904115319252014,0.20777948200702667,0.11520838737487793,0.11642708629369736,0.09137814491987228,0.027405913919210434,0.023319585248827934,-0.18437603116035461,-0.05346856638789177,0.016473185271024704,0.16292642056941986,0.07320110499858856,0.09776059538125992,0.40057995915412903,-0.05210763216018677,0.04433957114815712,-0.10594295710325241,0.10425031930208206,0.09074977785348892,-0.21818265318870544,-0.06832793354988098,-0.04658952355384827,0.02054736390709877,-0.0791054368019104,-0.01650514267385006,-0.4365578293800354,0.10342802107334137,0.17000721395015717,0.17181728780269623,0.11732404679059982,0.17472274601459503,-0.36773958802223206,-0.11922535300254822,0.034955356270074844,0.004235812928527594,0.023810742422938347,0.062441591173410416,0.011458511464297771,0.20627820491790771,-0.2941953241825104,-0.091095469892025,0.4749865233898163,0.36395764350891113,-0.16660276055335999,0.014441455714404583,-0.8303707242012024,0.06603033095598221,0.09371262788772583,-0.14923587441444397,-0.31208905577659607,-0.21014326810836792,-0.09804385900497437,0.520013153553009,0.4962978959083557,-0.3040507733821869,-0.1240772008895874,0.07302995026111603,-0.3238719701766968,0.06693582981824875,0.006403813604265451,-0.09630891680717468,-0.008631013333797455,-0.09247421473264694,0.047304149717092514,-0.24017883837223053,-0.13556888699531555,0.3363964855670929,0.12598884105682373,-0.1774779111146927,0.4800279140472412,0.15455813705921173,-0.21853390336036682,0.20355337858200073,0.1365894079208374,-0.4557620584964752,0.4171375632286072,0.1768304705619812,-0.42516905069351196,-0.41124841570854187,0.17497850954532623,-0.10392066091299057,-0.15226511657238007,-0.0018586384830996394,-0.04989148676395416,0.022617554292082787,0.1414293348789215,-0.17160022258758545,-0.24789239466190338,0.19349800050258636,0.08376678824424744,-0.1818692535161972,0.167659193277359,0.13962499797344208,0.0627361610531807,0.19916260242462158,0.05274965614080429,0.06599900871515274,0.4348243176937103,0.11317747086286545,0.6448906660079956,-0.00627032620832324,-0.5508085489273071,-0.2601507306098938,0.5151277780532837,0.18725945055484772,-0.03366304934024811,-0.1374620944261551,0.010322912596166134,0.004562673158943653,-0.05618388205766678,0.010205712169408798,0.35210004448890686,0.15066587924957275,0.04359925910830498,-0.09422425925731659,0.08368594944477081,0.07061551511287689,-0.06207143887877464,0.07985562086105347,-0.047187596559524536,0.03240309655666351,-0.005627185571938753,0.04376332834362984,0.02348094992339611,-0.002344753360375762,-0.0805036872625351,-0.02024439536035061,0.010824710130691528,0.050612106919288635,0.019239546731114388,0.040855877101421356,0.14352618157863617,-0.023693272843956947,0.03389416262507439,0.11212866753339767,0.16355250775814056,0.19458912312984467,-0.0069341957569122314,0.008493044413626194,0.025944184511899948,-0.009543935768306255,0.05878172442317009,0.02929377742111683,-0.010057898238301277,-0.01609978824853897,0.027102559804916382,-0.025002025067806244,-0.03678322210907936,-0.09599136561155319,-0.06490331888198853,-0.032026730477809906,0.018782811239361763,-0.0943155586719513,0.0625481978058815,0.051220301538705826,-0.06985344737768173,-0.03712449595332146,-0.013978689908981323,0.07203929871320724,0.029156232252717018,0.0690896064043045,-0.06523564457893372,-0.022140027955174446,0.011763863265514374,0.11384163796901703,0.09446559846401215,0.19152116775512695,0.16102980077266693,-0.10389533638954163,-0.14196111261844635,-0.06672780960798264,0.02261240780353546,-0.2998831272125244,-0.024350278079509735,-0.030246419832110405,-0.1568921059370041,0.007131883408874273,-0.1512136459350586,0.09889087826013565,0.11383676528930664,-0.0339897982776165,-0.08943891525268555,-0.08971481770277023,-0.22300899028778076,-0.5082331895828247,-0.10438547283411026,0.07246889919042587,-0.05860932916402817,0.011165905743837357,-0.07338271290063858,-0.0401548370718956,-0.13249355554580688,-0.06368459761142731,-0.09048432111740112,-0.11231016367673874,0.030221449211239815,-0.10955272614955902,0.03864118456840515,0.08819452673196793,-0.0813244953751564,0.11019827425479889,-0.1165790930390358,-0.25733035802841187,-0.04588660970330238,-0.12122778594493866,0.03884785994887352,0.02873198688030243,0.2248835563659668,0.3191927969455719,-0.05963623896241188,0.03337840735912323,0.07320654392242432,0.03465574234724045,-0.07005958259105682,-0.12645742297172546,-0.1386496126651764,-0.030568966642022133,0.014344271272420883,0.06799202412366867,0.0870852842926979,0.2973191440105438,-0.10805738717317581,-0.01646394655108452,-0.007841850630939007,0.014840281568467617,0.05054585635662079,-0.126352459192276,-0.23549063503742218,0.05864810198545456,0.009488912299275398,-0.04907133802771568,-0.09219115227460861,-0.2517567574977875,-0.26848819851875305,0.06010401248931885,-0.015655314549803734,-0.055690377950668335,-0.029207957908511162,-0.03330802172422409,0.4409600794315338,0.010179760865867138,0.046440623700618744,0.15949760377407074,0.18841643631458282,0.23718729615211487,-0.07317028939723969,0.00025356607511639595,-0.027410123497247696,-0.0326697863638401,0.009362555108964443,-0.16675689816474915,-0.038654033094644547,-0.008701803162693977,0.012906741350889206,0.0983448326587677,-0.014325160533189774,-0.15555445849895477,0.38958388566970825,-0.025959569960832596,-0.03887438029050827,-0.1859208196401596,-0.2660353183746338,-0.20898157358169556,0.26845329999923706,0.048622190952301025,-0.002793598920106888,0.03181372582912445,-0.027235999703407288,-0.1749926656484604,0.3884475529193878,-0.006729242857545614,-0.012983224354684353,0.05580691248178482,-0.022126153111457825,-0.10019846260547638,-0.32272979617118835,-0.0998980924487114,-0.059932466596364975,-0.06692656129598618,-0.0718027725815773,-0.0050836107693612576,0.40973183512687683,-0.05135340243577957,-0.06415003538131714,0.032985273748636246,0.08937440812587738,-0.06518297642469406,-0.5729895830154419,-0.05642426386475563,0.0075660753063857555,-0.12049680203199387,-0.13521642982959747,-0.014112451113760471,-0.06215648353099823,-0.0007918464834801853,0.034048475325107574,0.022081248462200165,0.07153825461864471,0.02835390716791153,0.1653745323419571,0.04542802646756172,0.036978721618652344,0.026085110381245613,-0.12211979925632477,0.036509525030851364,-0.5606310963630676,-0.023199263960123062,0.008965249173343182,-0.01244471687823534,0.07226695120334625,0.1469319462776184,0.00026957382215186954,-0.07052633166313171,0.08561240881681442,0.02575024589896202,-0.13299092650413513,-0.1422823667526245,0.10499096661806107,-0.030924538150429726,0.03714640811085701,0.00738051813095808,-0.11466270685195923,0.0794321745634079,0.25044575333595276,0.009202633053064346,0.019705016165971756,0.12600001692771912,0.08593901246786118,-0.004958101082593203,-0.05701150372624397,-0.003331317799165845,0.011719043366611004,0.13429288566112518,0.09363740682601929,0.016189320012927055,-0.5058242082595825,0.04875051975250244,0.056111786514520645,0.015213423408567905,-0.11775536090135574,-0.20775699615478516,0.2779765725135803,-0.004182247910648584,-0.16054105758666992,-0.09914371371269226,-0.10667405277490616,0.05351642146706581,-0.17213287949562073,-0.0023872763849794865,0.11097679287195206,-0.0007636875379830599,-0.02162208780646324,0.027072064578533173,-0.6682844161987305,0.06569858640432358,0.014552193693816662,0.008839461021125317,0.09339394420385361,0.04697929322719574,-0.35993117094039917,-0.06063989922404289,-0.05784839391708374,-0.04954184219241142,-0.013899825513362885,-0.05927572399377823,-0.32439592480659485,0.07933127880096436,0.07868803292512894,0.14876215159893036,0.24523788690567017,0.20442786812782288,-0.00621824013069272,-0.049614068120718,0.053404152393341064,0.005125413648784161,0.1457732766866684,-0.020723609253764153,0.12347739189863205,-0.09983920305967331,-0.10206717997789383,-0.07181785255670547,-0.04107549041509628,-0.11875680834054947,0.08134488761425018,0.1390698105096817,0.12377650290727615,0.03894779831171036,-0.11755017936229706,0.164189413189888,0.05157041922211647,-0.08738388866186142,-0.26881536841392517,-0.09286301583051682,-0.06311345100402832,-0.12415778636932373,-0.12119990587234497,0.056918058544397354,-0.022732466459274292,-0.0824119821190834,-0.2336403727531433,-0.4959675967693329,-0.056765176355838776,-0.05071990191936493,0.08172778785228729,0.005379827693104744,0.1654006987810135,0.07241631299257278,0.047557033598423004,-0.03036406822502613,0.007778936065733433,-0.002297263592481613,-0.18659138679504395,-0.2815142273902893,0.05353017523884773,0.01480485312640667,0.10053790360689163,0.005325744394212961,-0.0522935725748539,-0.01777571067214012,0.07266794890165329,0.06333085894584656,0.05575299263000488,-0.010671556927263737,0.1451209932565689,0.19716528058052063,0.1054815948009491,0.06793568283319473,-0.03272135183215141,0.012299115769565105,-0.012394138611853123,0.06494849175214767,-0.4035396873950958,0.07330683618783951,-0.03515259176492691,-0.03176242113113403,-0.06647911667823792,-0.22416354715824127,0.2248755246400833,-0.08396298438310623,-0.07893485575914383,-0.02777368202805519,0.0670265480875969,0.22607633471488953,0.05478253215551376,-0.0015009917551651597,0.03362502530217171,-0.01244676485657692,-0.02222115732729435,0.012135506607592106,-0.5890539884567261,-0.04361120983958244,0.058101046830415726,0.12311936914920807,0.13982215523719788,0.12857210636138916,-0.17569077014923096,0.016880284994840622,0.01777496188879013,0.11017177999019623,0.10484515875577927,0.23556679487228394,0.22342433035373688,0.006824910640716553,-0.020060110837221146,-0.037819188088178635,0.06589227169752121,-0.0773463100194931,0.019807562232017517,-0.039303164929151535,-0.033437393605709076,-0.09927650541067123,-0.09955387562513351,-0.17087264358997345,-0.18348437547683716,0.04483608901500702,0.05065826699137688,0.036010462790727615,0.07682988047599792,0.0799439400434494,0.5009313225746155,0.07584787905216217,0.07619477808475494,0.1376446634531021,0.14773015677928925,-0.11703099310398102,-0.12103663384914398,-0.012061472050845623,-0.007312297355383635,-0.002428922103717923,0.03487814962863922,-0.1578509658575058,-0.2999891936779022,-0.054344210773706436,-0.09918927401304245,-0.07107914984226227,-0.130335733294487,-0.15718472003936768,0.4993927478790283,0.029087666422128677,-0.022127356380224228,-0.028214726597070694,0.028778549283742905,0.07199941575527191,-0.16411834955215454,-0.1244797557592392,0.11830247938632965,0.15193712711334229,-0.11504639685153961,0.09489496797323227,0.1635064333677292,0.13256201148033142,-0.11287359148263931,0.037871625274419785,0.35625940561294556,0.9293421506881714,-0.18973828852176666,0.7399480938911438,-0.2452128827571869,-0.4808471202850342,0.32679668068885803,-0.0184488445520401,0.24368388950824738,-0.29855453968048096,-0.4620758891105652,0.34347251057624817,-0.15331292152404785,0.04403824359178543,0.26190611720085144,0.22192955017089844,0.16424676775932312,0.10686344653367996,0.370635449886322,-0.09770034998655319,-0.19488531351089478,-0.1526179164648056,-0.07458316534757614,0.051590435206890106,0.11587895452976227,0.1148223727941513,-0.1986958533525467,0.11069236695766449,-0.11902933567762375,-0.0782061293721199,0.2768627107143402,0.08257370442152023,-0.024076923727989197,0.24860627949237823,0.40794989466667175,-0.3025856018066406,-0.2556249499320984,-0.12764106690883636,-0.39182668924331665,-0.12868276238441467,0.49115872383117676,-0.1561594009399414,0.06711028516292572,0.15366920828819275,-0.32986801862716675,0.07221809029579163,0.06202078238129616,-0.09432465583086014,-0.1571306437253952,0.10827049612998962,-0.08367116749286652,0.1594010442495346,0.17429159581661224,-0.027041029185056686,0.20475594699382782,-0.3370969295501709,0.25254306197166443,0.3272303342819214,0.3252031207084656,-0.07651776075363159,0.15892617404460907,-0.170149028301239,-0.15098868310451508,0.045173242688179016,0.19378334283828735,-0.05605762451887131,0.15838196873664856,0.025126883760094643,-0.15613476932048798,-0.02517765201628208,-0.03129146620631218,0.06409472227096558,0.004036732017993927,0.01640406809747219,0.07453545928001404,-0.09407604485750198,-0.084232859313488,-0.16687481105327606,0.04791835695505142,-0.08377828449010849,-0.0747535452246666,-0.06022815778851509,-0.06186521425843239,-0.1498330980539322,0.13584570586681366,-0.06777879595756531,-0.07075715065002441,-0.002122072037309408,0.04937518388032913,0.10351333022117615,-0.1570451855659485,-0.0054352059960365295,0.0666842833161354,0.025987254455685616,0.002450869418680668,-0.0731743648648262,0.1784980595111847,-0.046082451939582825,-0.03580794855952263,-0.026910973712801933,-0.10693792253732681,-0.05872739478945732,-0.49898412823677063,0.0061938869766891,-0.01779862493276596,0.02239954099059105,-0.00261855311691761,0.0617099292576313,0.25966811180114746,-0.01911729946732521,-0.06459301710128784,0.027659496292471886,-0.10970251262187958,0.0018524640472605824,-0.15152877569198608,-0.018060771748423576,-0.0034586794208735228,-0.024895871058106422,0.09172550588846207,-0.001475823693908751,-0.2611544132232666,0.044931694865226746,0.05608949065208435,0.11685598641633987,0.1339503973722458,0.2750054597854614,-0.2096194326877594,0.08257824927568436,0.005582895595580339,0.06682022660970688,0.0026871238369494677,-0.10747841745615005,-0.22826752066612244,0.09667336195707321,0.001491665723733604,-0.04845205321907997,0.05182637274265289,0.16516320407390594,-0.1312205046415329,-0.023865455761551857,-0.0022361997980624437,-0.05455077439546585,0.02223382145166397,0.10016479343175888,-0.2020324319601059,0.00018370547331869602,-0.01572619564831257,-0.01192958652973175,-0.0015327265718951821,-0.0005008232546970248,-0.402331680059433,0.04340487718582153,0.042303748428821564,0.04951440915465355,-0.05161462724208832,0.0295712947845459,-0.1855829358100891,-0.02089579775929451,0.030303943902254105,-0.0529710128903389,-0.08228489011526108,-0.11931649595499039,0.06377578526735306,0.06682774424552917,0.04627386853098869,0.07913339883089066,0.022547665983438492,0.0042279670014977455,0.1382293999195099,-0.024619411677122116,-0.007238656282424927,0.07118336111307144,0.09980560839176178,0.29456251859664917,-0.32179686427116394,-0.08177124708890915,-0.08547893166542053,-0.011472039856016636,-0.07022268325090408,-0.10829365253448486,-0.1566869020462036,-0.17216311395168304,-0.10439854115247726,-0.09154526144266129,-0.1463814675807953,-0.24480508267879486,-0.008907082490622997,0.04899144917726517,0.09827405214309692,0.06512947380542755,-0.047243427485227585,0.10953514277935028,-0.06326555460691452,-0.07254721224308014,-0.09078550338745117,-0.03950192779302597,-0.23385626077651978,-0.15544161200523376,0.2591848373413086,-0.05454180762171745,-0.02971084974706173,-0.11116050183773041,-0.07466359436511993,-0.18473228812217712,-0.16817519068717957,-0.014859489165246487,-0.005760503001511097,0.07391443103551865,-0.02733376994729042,0.11592256277799606,-0.2911253571510315,-0.027418924495577812,0.005058691371232271,-0.07231054455041885,0.02708224020898342,-0.13843898475170135,-0.09875845909118652,0.019604193046689034,0.01855277083814144,-0.042283423244953156,0.0017883027903735638,-0.028743524104356766,0.331752747297287,0.040275391191244125,0.0638733059167862,0.056753579527139664,0.15695208311080933,0.02930808998644352,-0.08740434795618057,0.06594729423522949,0.003147415816783905,0.15806519985198975,0.06329499930143356,0.08291006088256836,0.10109668225049973,0.01185584906488657,0.03214496746659279,0.03419991210103035,0.12976884841918945,0.044136397540569305,0.07678456604480743,-0.004392814356833696,0.06738603115081787,-0.0005194145487621427,0.13589192926883698,-0.13118591904640198,0.2340703308582306,-0.06685255467891693,-0.09163100272417068,-0.1479104608297348,-0.14575909078121185,-0.020279135555028915,-0.13035355508327484,0.03710577264428139,-0.005811531096696854,0.11093147099018097,-0.09287959337234497,0.02497689612209797,-0.17512108385562897,-0.0330817885696888,-0.09150566905736923,-0.07864730805158615,-0.04329715669155121,-0.04170873388648033,0.4057799279689789,0.04734506830573082,0.1394834667444229,0.0713874101638794,0.09184231609106064,-0.0767560750246048,-0.015352514572441578,0.04106000065803528,-0.005008597392588854,-0.05714571475982666,-0.05648812651634216,0.16624601185321808,0.3782762289047241,0.006722209509462118,-0.03542378172278404,-0.08482962101697922,-0.06383537501096725,0.10129455476999283,-0.036724578589200974,-0.01175486110150814,-0.1165856122970581,-0.07295987010002136,-0.015640022233128548,-0.0856478363275528,0.30042967200279236,0.0200665183365345,-0.07915306091308594,0.009132360108196735,0.009829185903072357,0.2134542316198349,-0.41715604066848755,0.0340241901576519,0.05398629978299141,0.08180788904428482,0.05036558210849762,0.026994196698069572,0.14802755415439606,-0.012727644294500351,-0.018562598153948784,0.004985153209418058,0.011289097368717194,0.012141119688749313,-0.139619842171669,0.0405912920832634,0.07309085130691528,0.002257164102047682,-0.025756264105439186,0.01360245794057846,-0.5888062119483948,-0.07359345257282257,-0.000498196401167661,-0.022679369896650314,0.09476295858621597,0.17988981306552887,0.01417513471096754,-0.023626750335097313,-0.03098718635737896,-0.0028767127078026533,-0.13036565482616425,-0.14044630527496338,-0.12237457185983658,-0.07850803434848785,0.052846089005470276,-0.009826290421187878,0.07941974699497223,0.22497355937957764,-0.027749769389629364,-0.02067437395453453,-0.07465627044439316,-0.03372487425804138,-0.1449715942144394,-0.12131021171808243,0.14925283193588257,0.01731990836560726,0.07096303999423981,0.03485039621591568,0.08076144009828568,0.10709056258201599,0.0337495319545269,0.08308520913124084,0.1373746544122696,0.17097890377044678,0.11228954792022705,0.24282509088516235,0.22038856148719788,-0.07876856625080109,-0.03685831278562546,-0.07553336769342422,-0.08922097086906433,-0.1345013678073883,0.16178713738918304,0.014407443813979626,-0.0004014935402665287,0.07687150686979294,-0.07211252301931381,-0.051838964223861694,0.16235414147377014,0.06973572820425034,0.01090275589376688,0.015522411093115807,0.02820449508726597,-0.007456034887582064,-0.1421951949596405,0.07333183288574219,0.07049606740474701,0.013690546154975891,0.049033891409635544,-0.10208115726709366,-0.47813764214515686,0.01577814109623432,0.040151432156562805,-0.09468643367290497,-0.17911189794540405,-0.42974379658699036,-0.0007887444808147848,0.06277704983949661,-0.057658601552248,0.03843635320663452,0.05806676298379898,-0.04634358361363411,-0.3384977877140045,0.018650785088539124,0.0016777444398030639,-0.03614849969744682,-0.09695171564817429,-0.2094588279724121,0.21548400819301605,-0.003019502153620124,-0.006189776584506035,-0.034893207252025604,-0.059138499200344086,-0.03008379600942135,-0.5869728922843933,-0.1192525252699852,-0.030856702476739883,0.025095660239458084,-0.1016402468085289,0.22956641018390656,0.01648644730448723,0.07436035573482513,0.03105832263827324,0.021005749702453613,0.09163915365934372,-0.26635488867759705,-0.2373238503932953,-0.09221448004245758,-0.09385111182928085,-0.12896330654621124,-0.18933169543743134,-0.2392912209033966,0.24106749892234802,-0.09474276006221771,-0.11797387897968292,-0.09456150233745575,-0.13113169372081757,0.011329811997711658,0.03136200085282326,0.03042048215866089,0.06533382833003998,0.03679007664322853,0.03339533507823944,0.04166755825281143,-0.0726051926612854,-0.038703642785549164,-0.10313811898231506,-0.13269942998886108,0.028711361810564995,-0.0600992888212204,0.01802351325750351,0.0023919178638607264,-0.03870657458901405,-0.09574995934963226,-0.02472141571342945,0.0910160094499588,-0.3181200921535492,0.15835565328598022,0.07655531913042068,0.213751882314682,0.03333514183759689,0.16463105380535126,-0.034652549773454666,-0.16727666556835175,-0.06025616452097893,-0.0454152449965477,0.047073397785425186,0.05844127759337425,0.08159620314836502,0.06857959181070328,0.037095919251441956,0.14261020720005035,-0.03204626590013504,0.02855021134018898,-0.4072113335132599,-0.011022035032510757,-0.12578167021274567,-0.05948740988969803,-0.09809192270040512,0.0636669397354126,0.05229625850915909,-0.05184131860733032,-0.014805831015110016,0.07260887324810028,-0.11489276587963104,0.05287414789199829,0.10972974449396133,0.0843619629740715,0.04561156779527664,-0.03804958239197731,0.06388819962739944,0.17515787482261658,-0.30136704444885254,-0.1396525800228119,0.026748040691018105,-0.13568438589572906,-0.014183977618813515,-0.02136596105992794,0.21032321453094482,-0.22769373655319214,-0.13292056322097778,0.1545548290014267,0.24373678863048553,0.043809276074171066,0.15676049888134003,-0.1820051521062851,0.057469096034765244,0.2097981721162796,-0.16360139846801758,-0.054132502526044846,0.2386046051979065,-0.06207772344350815,0.011709857732057571,0.10687853395938873,0.03982868045568466,-0.17377015948295593,-0.19214583933353424,0.08565475791692734,-0.22566044330596924,0.2892906963825226,0.24140329658985138,0.22335748374462128,0.25151652097702026,-0.41782769560813904,-0.09645280987024307,-0.041032277047634125,0.06740913540124893,-0.13695362210273743,0.2350289225578308,-0.12056213617324829,0.3739602267742157,0.0026212665252387524,0.1906924843788147,0.05670647323131561,0.0685499981045723,-0.2926108241081238,-0.00208274950273335,0.24504128098487854,0.04298718646168709,0.15722820162773132,0.32958632707595825,0.22869707643985748,-0.3016849458217621,0.013241183012723923,-0.3002799451351166,-0.12150803208351135,-0.15286105871200562,0.07947266101837158,-0.04512964189052582,-0.15109559893608093,0.08903716504573822,0.421517014503479,0.05252619460225105,-0.006524058990180492,0.13862894475460052,-0.06150203198194504,-0.002827048534527421,-0.11506059765815735,-0.010425024665892124,-0.0936233401298523,-0.04618242010474205,-0.16063955426216125,0.008754993788897991,-0.07867535203695297,-0.0334329716861248,0.05833403021097183,0.046442992985248566,-0.010334816761314869,-0.007815293967723846,0.003985898103564978,-0.02675139717757702,-0.021078677847981453,-0.08429767191410065,0.028186466544866562,-0.08157239854335785,-0.10157276690006256,-0.04975777864456177,0.029892034828662872,0.042208027094602585,-0.02886553481221199,0.008165029808878899,-0.0568307526409626,-0.03706123307347298,-0.0452742725610733,0.06894869357347488,-0.014907129108905792,-0.040781885385513306,0.055416155606508255,0.042920373380184174,-0.012799084186553955,-0.0015570261748507619,-0.022849295288324356,-0.13696615397930145,0.033346790820360184,0.042912475764751434,-0.0356852151453495,-0.024642659351229668,-0.008597803302109241,0.07149683684110641,-0.024098139256238937,-0.02899865247309208,-0.007994680665433407,0.16418412327766418,0.02737293764948845,0.025606686249375343,-0.018527494743466377,-0.011608884669840336,-0.026954710483551025,-0.05365191772580147,0.035059452056884766,-0.04228417947888374,-0.04103297367691994,-0.0025707592722028494,0.07350217550992966,0.045291341841220856,0.09478989243507385,0.056187327951192856,0.045911021530628204,0.036322228610515594,0.027485864236950874,0.033648185431957245,0.09104382246732712,0.2425987273454666,0.05098002031445503,0.027161790058016777,0.020857425406575203,-0.03521616756916046,-0.010760968551039696,0.1707366555929184,-0.018379339948296547,-0.004516150336712599,0.029220426455140114,-0.006112240720540285,-0.028916066512465477,-0.04005204886198044,-0.013559523969888687,0.04171443358063698,0.0728236585855484,0.05407033488154411,-0.072008416056633,-0.08526315540075302,-0.0053255595266819,-0.024461515247821808,-0.002150643849745393,-0.026831064373254776,0.013705411925911903,-0.029542051255702972,0.009868074208498001,-0.02168896421790123,-0.04382913187146187,-0.04806448891758919,-0.06692466139793396,0.28971678018569946,0.02361392043530941,0.024362007156014442,0.021695107221603394,-0.0012295590713620186,0.09050394594669342,0.16657546162605286,-0.001933713792823255,-0.01741231419146061,-0.06606560200452805,-0.029171358793973923,-0.1685156375169754,-0.01053825207054615,-0.13320815563201904,-0.006263754330575466,-0.008310521952807903,-0.0846412256360054,-0.0463491789996624,-0.2944791615009308,0.07197239995002747,-0.04864709824323654,0.011804485693573952,-0.015995468944311142,-0.02126559056341648,0.05898208171129227,-0.06799493730068207,0.011642469093203545,-0.013319089077413082,0.05419652536511421,0.0315505713224411,-0.09568259119987488,-0.14351989328861237,-0.043496329337358475,-0.08258149772882462,-0.0989476665854454,0.045365024358034134,0.16041819751262665,0.03238215669989586,-0.018613087013363838,-0.07771336287260056,-0.10649827122688293,-0.11627386510372162,-0.24826711416244507,0.15540146827697754,0.0013811831595376134,0.0814281553030014,0.030192751437425613,0.14410342276096344,-0.30326324701309204,-0.03715350478887558,0.005040434189140797,-0.01787063106894493,-0.06492287665605545,-0.12327122688293457,0.1560031920671463,-0.004126289393752813,-0.007773036602884531,-0.04860444366931915,0.07164023816585541,0.05871843546628952,-0.046265147626399994,-0.025753986090421677,0.02763109654188156,0.040340788662433624,-0.12410826236009598,-0.07159383594989777,-0.02734207734465599,-0.08663997054100037,-0.005990039091557264,-0.01643194630742073,-0.07470738887786865,0.100002720952034,0.042075224220752716,0.024817833676934242,-0.06634653359651566,-0.017280882224440575,-0.06306605041027069,-0.004423206672072411,0.03894282132387161,-0.07932736724615097,0.05210861191153526,0.048621051013469696,-0.02886858396232128,0.006870277225971222,0.04239680618047714,-0.07118720561265945,0.0836355909705162,0.019326040521264076,0.06138613447546959,0.045508600771427155,-0.09974389523267746,0.07949680089950562,-0.05188778042793274,0.12238045036792755,-0.013401605188846588,0.04410488158464432,-0.032427363097667694,-0.005342455580830574,0.013959773816168308,-0.06173505261540413,-0.022317565977573395,-0.08589113503694534,-0.09670426696538925,0.038971174508333206,-0.04612953960895538,-0.02655240334570408,-0.0011053525377064943,0.1962292641401291,0.10750614106655121,0.02975725568830967,0.02997094951570034,0.04053817689418793,-0.016072086989879608,0.030827244743704796,0.6414321064949036,0.017415868118405342,0.009254971519112587,0.0023812195286154747,-0.07698198407888412,0.052004024386405945,-0.18302258849143982,0.027306782081723213,-0.01629912294447422,-0.008705697022378445,0.004712578374892473,0.019488144665956497,0.36923471093177795,0.037048500031232834,-0.006195622030645609,0.04402914270758629,0.07105907797813416,0.011944924481213093,-0.1457890421152115,-0.018769552931189537,0.007807805668562651,0.0035133259370923042,0.06218433007597923,0.0003405350144021213,0.040440600365400314,-0.04227255657315254,-0.014854867942631245,-0.03984411060810089,-0.06779015064239502,-0.0241882111877203,0.19064664840698242,-0.0018722168169915676,0.018537623807787895,0.019128629937767982,0.0026827387046068907,0.02852882258594036,-0.41753846406936646,-0.031106553971767426,-0.00616096006706357,-0.04158443957567215,-0.03784441202878952,-0.007544622756540775,-0.22860020399093628,-0.007908068597316742,-0.006716128438711166,-0.0017226031050086021,0.05640716478228569,0.002227391116321087,-0.14670532941818237,0.01589198410511017,0.006662206258624792,0.014975952915847301,-0.01368529163300991,0.003038558643311262,0.23650090396404266,-0.07368636131286621,0.004213223699480295,-0.03776099905371666,-0.035270340740680695,-0.0074948458932340145,-0.1475536972284317,-0.14461354911327362,-0.013815735466778278,-0.022387605160474777,0.06861179322004318,-0.010590102523565292,0.2788066565990448,-0.010160990990698338,-0.01720930077135563,-0.06306528300046921,-0.09044869989156723,-0.010023165494203568,-0.21221451461315155,0.10149756073951721,0.04766388610005379,0.06558568775653839,0.010445778258144855,-0.01623600907623768,-0.29842302203178406,0.027369428426027298,-0.026145750656723976,-0.049532078206539154,-0.051906902343034744,0.008985885418951511,0.22617869079113007,0.05686798691749573,0.053266193717718124,0.13652198016643524,0.033632542937994,-0.0600750669836998,-0.15860748291015625,-0.05891047418117523,-0.026898209005594254,-0.031590595841407776,0.010318231768906116,0.01522967778146267,-0.24878667294979095,-0.0036832320038229227,-0.04970362409949303,-0.0529782809317112,-0.03154021129012108,-0.08916164189577103,0.24543938040733337,-0.12716920673847198,-0.0416976697742939,-0.053389765322208405,-0.16905835270881653,-0.030334895476698875,-0.17551350593566895,-0.1340920478105545,-0.07140103727579117,-0.046837855130434036,-0.1548270434141159,-0.015925751999020576,0.24246317148208618,-0.03266308456659317,-0.11416807025671005,-0.129450723528862,-0.055711932480335236,-0.16572324931621552,-0.08309289813041687,0.17918945848941803,0.11665244400501251,0.13375629484653473,0.12183180451393127,0.05784265697002411,-0.32396212220191956,-0.06539882719516754,-0.07422806322574615,-0.0943310409784317,-0.023332985118031502,-0.12984296679496765,0.2665325701236725,0.142139732837677,0.16909067332744598,0.2056637853384018,0.24954989552497864,0.16267725825309753,-0.06504309922456741,0.00757170096039772,0.015350732952356339,-0.012485594488680363,0.0025152789894491434,0.0051774256862699986,0.29302868247032166,0.005182381719350815,0.009667293168604374,0.0014879528898745775,0.01870874874293804,0.040230005979537964,-0.12501877546310425,0.018516946583986282,0.03373641520738602,0.04044586047530174,0.02750384248793125,0.06445851922035217,0.17778939008712769,0.01574021950364113,0.016032375395298004,-0.008955640718340874,-0.019094375893473625,0.06134326383471489,-0.223802387714386,0.015113125555217266,0.011659708805382252,0.043036431074142456,0.01856679655611515,0.04755965992808342,0.13538852334022522,-0.013381351716816425,-0.036940474063158035,-0.03212026134133339,-0.03167000785470009,-0.06077425181865692,0.09283673763275146,0.024297339841723442,0.0279573705047369,0.03293096274137497,0.026342127472162247,0.03322673961520195,-0.41704776883125305,-0.01868508756160736,-0.04406963661313057,-0.03922363370656967,-0.020511828362941742,-0.12172224372625351,-0.06195565685629845,-0.06673779338598251,-0.0580604150891304,-0.030450521036982536,-0.08142020553350449,-0.06953851133584976,0.015885071828961372,0.01983584091067314,-0.1380832940340042,0.007506898138672113,-0.5744398236274719,-0.23650521039962769,-0.01699657551944256,0.6401971578598022,-0.11812346428632736,-0.20087197422981262,